digraph Tree {
node [shape=box, style="filled, rounded", color="black", fontname=helvetica] ;
edge [fontname=helvetica] ;
0 [label="marital_status_Married-civ-spouse <= 0.5\ngini = 0.366\nsamples = 29305\nvalue = [22252, 7053]\nclass = <=50K", fillcolor="#eda978"] ;
1 [label="capital-gain <= 7055.5\ngini = 0.122\nsamples = 15777\nvalue = [14749, 1028]\nclass = <=50K", fillcolor="#e78a47"] ;
0 -> 1 [labeldistance=2.5, labelangle=45, headlabel="True"] ;
2 [label="educational-num <= 12.5\ngini = 0.093\nsamples = 15505\nvalue = [14744, 761]\nclass = <=50K", fillcolor="#e68843"] ;
1 -> 2 ;
3 [label="capital-loss <= 2218.5\ngini = 0.047\nsamples = 12423\nvalue = [12125, 298]\nclass = <=50K", fillcolor="#e6843e"] ;
2 -> 3 ;
4 [label="hours-per-week <= 41.5\ngini = 0.044\nsamples = 12374\nvalue = [12095, 279]\nclass = <=50K", fillcolor="#e6843e"] ;
3 -> 4 ;
5 [label="age <= 32.5\ngini = 0.028\nsamples = 10222\nvalue = [10076, 146]\nclass = <=50K", fillcolor="#e5833c"] ;
4 -> 5 ;
6 [label="marital_status_Married-AF-spouse <= 0.5\ngini = 0.008\nsamples = 5862\nvalue = [5838, 24]\nclass = <=50K", fillcolor="#e5823a"] ;
5 -> 6 ;
7 [label="fnlwgt <= 23759.0\ngini = 0.007\nsamples = 5849\nvalue = [5828, 21]\nclass = <=50K", fillcolor="#e5813a"] ;
6 -> 7 ;
8 [label="fnlwgt <= 23381.0\ngini = 0.142\nsamples = 26\nvalue = [24, 2]\nclass = <=50K", fillcolor="#e78c49"] ;
7 -> 8 ;
9 [label="gini = 0.0\nsamples = 23\nvalue = [23, 0]\nclass = <=50K", fillcolor="#e58139"] ;
8 -> 9 ;
10 [label="age <= 23.5\ngini = 0.444\nsamples = 3\nvalue = [1, 2]\nclass = >50K", fillcolor="#9ccef2"] ;
8 -> 10 ;
11 [label="gini = 0.0\nsamples = 1\nvalue = [1, 0]\nclass = <=50K", fillcolor="#e58139"] ;
10 -> 11 ;
12 [label="gini = 0.0\nsamples = 2\nvalue = [0, 2]\nclass = >50K", fillcolor="#399de5"] ;
10 -> 12 ;
13 [label="marital_status_Widowed <= 0.5\ngini = 0.007\nsamples = 5823\nvalue = [5804, 19]\nclass = <=50K", fillcolor="#e5813a"] ;
7 -> 13 ;
14 [label="age <= 26.5\ngini = 0.006\nsamples = 5811\nvalue = [5793, 18]\nclass = <=50K", fillcolor="#e5813a"] ;
13 -> 14 ;
15 [label="education_5th-6th <= 0.5\ngini = 0.003\nsamples = 4346\nvalue = [4340, 6]\nclass = <=50K", fillcolor="#e58139"] ;
14 -> 15 ;
16 [label="work_Self-emp-not-inc <= 0.5\ngini = 0.002\nsamples = 4311\nvalue = [4306, 5]\nclass = <=50K", fillcolor="#e58139"] ;
15 -> 16 ;
17 [label="education_12th <= 0.5\ngini = 0.002\nsamples = 4241\nvalue = [4237, 4]\nclass = <=50K", fillcolor="#e58139"] ;
16 -> 17 ;
18 [label="age <= 21.5\ngini = 0.001\nsamples = 4076\nvalue = [4073, 3]\nclass = <=50K", fillcolor="#e58139"] ;
17 -> 18 ;
19 [label="gini = 0.0\nsamples = 2343\nvalue = [2343, 0]\nclass = <=50K", fillcolor="#e58139"] ;
18 -> 19 ;
20 [label="age <= 22.5\ngini = 0.003\nsamples = 1733\nvalue = [1730, 3]\nclass = <=50K", fillcolor="#e58139"] ;
18 -> 20 ;
21 [label="hours-per-week <= 33.5\ngini = 0.012\nsamples = 495\nvalue = [492, 3]\nclass = <=50K", fillcolor="#e5823a"] ;
20 -> 21 ;
22 [label="hours-per-week <= 31.0\ngini = 0.03\nsamples = 195\nvalue = [192, 3]\nclass = <=50K", fillcolor="#e5833c"] ;
21 -> 22 ;
23 [label="fnlwgt <= 55756.0\ngini = 0.021\nsamples = 190\nvalue = [188, 2]\nclass = <=50K", fillcolor="#e5823b"] ;
22 -> 23 ;
24 [label="fnlwgt <= 52284.5\ngini = 0.117\nsamples = 16\nvalue = [15, 1]\nclass = <=50K", fillcolor="#e78946"] ;
23 -> 24 ;
25 [label="gini = 0.0\nsamples = 15\nvalue = [15, 0]\nclass = <=50K", fillcolor="#e58139"] ;
24 -> 25 ;
26 [label="gini = 0.0\nsamples = 1\nvalue = [0, 1]\nclass = >50K", fillcolor="#399de5"] ;
24 -> 26 ;
27 [label="job_Sales <= 0.5\ngini = 0.011\nsamples = 174\nvalue = [173, 1]\nclass = <=50K", fillcolor="#e5823a"] ;
23 -> 27 ;
28 [label="gini = 0.0\nsamples = 136\nvalue = [136, 0]\nclass = <=50K", fillcolor="#e58139"] ;
27 -> 28 ;
29 [label="relationship_Not-in-family <= 0.5\ngini = 0.051\nsamples = 38\nvalue = [37, 1]\nclass = <=50K", fillcolor="#e6843e"] ;
27 -> 29 ;
30 [label="gini = 0.0\nsamples = 26\nvalue = [26, 0]\nclass = <=50K", fillcolor="#e58139"] ;
29 -> 30 ;
31 [label="fnlwgt <= 186941.0\ngini = 0.153\nsamples = 12\nvalue = [11, 1]\nclass = <=50K", fillcolor="#e78c4b"] ;
29 -> 31 ;
32 [label="fnlwgt <= 171202.0\ngini = 0.444\nsamples = 3\nvalue = [2, 1]\nclass = <=50K", fillcolor="#f2c09c"] ;
31 -> 32 ;
33 [label="gini = 0.0\nsamples = 2\nvalue = [2, 0]\nclass = <=50K", fillcolor="#e58139"] ;
32 -> 33 ;
34 [label="gini = 0.0\nsamples = 1\nvalue = [0, 1]\nclass = >50K", fillcolor="#399de5"] ;
32 -> 34 ;
35 [label="gini = 0.0\nsamples = 9\nvalue = [9, 0]\nclass = <=50K", fillcolor="#e58139"] ;
31 -> 35 ;
36 [label="job_Other-service <= 0.5\ngini = 0.32\nsamples = 5\nvalue = [4, 1]\nclass = <=50K", fillcolor="#eca06a"] ;
22 -> 36 ;
37 [label="gini = 0.0\nsamples = 4\nvalue = [4, 0]\nclass = <=50K", fillcolor="#e58139"] ;
36 -> 37 ;
38 [label="gini = 0.0\nsamples = 1\nvalue = [0, 1]\nclass = >50K", fillcolor="#399de5"] ;
36 -> 38 ;
39 [label="gini = 0.0\nsamples = 300\nvalue = [300, 0]\nclass = <=50K", fillcolor="#e58139"] ;
21 -> 39 ;
40 [label="gini = 0.0\nsamples = 1238\nvalue = [1238, 0]\nclass = <=50K", fillcolor="#e58139"] ;
20 -> 40 ;
41 [label="Black <= 0.5\ngini = 0.012\nsamples = 165\nvalue = [164, 1]\nclass = <=50K", fillcolor="#e5823a"] ;
17 -> 41 ;
42 [label="gini = 0.0\nsamples = 141\nvalue = [141, 0]\nclass = <=50K", fillcolor="#e58139"] ;
41 -> 42 ;
43 [label="hours-per-week <= 33.5\ngini = 0.08\nsamples = 24\nvalue = [23, 1]\nclass = <=50K", fillcolor="#e68642"] ;
41 -> 43 ;
44 [label="gini = 0.0\nsamples = 18\nvalue = [18, 0]\nclass = <=50K", fillcolor="#e58139"] ;
43 -> 44 ;
45 [label="job_Other-service <= 0.5\ngini = 0.278\nsamples = 6\nvalue = [5, 1]\nclass = <=50K", fillcolor="#ea9a61"] ;
43 -> 45 ;
46 [label="gini = 0.0\nsamples = 4\nvalue = [4, 0]\nclass = <=50K", fillcolor="#e58139"] ;
45 -> 46 ;
47 [label="fnlwgt <= 280727.0\ngini = 0.5\nsamples = 2\nvalue = [1, 1]\nclass = <=50K", fillcolor="#ffffff"] ;
45 -> 47 ;
48 [label="gini = 0.0\nsamples = 1\nvalue = [1, 0]\nclass = <=50K", fillcolor="#e58139"] ;
47 -> 48 ;
49 [label="gini = 0.0\nsamples = 1\nvalue = [0, 1]\nclass = >50K", fillcolor="#399de5"] ;
47 -> 49 ;
50 [label="Asian-Pac-Islander <= 0.5\ngini = 0.028\nsamples = 70\nvalue = [69, 1]\nclass = <=50K", fillcolor="#e5833c"] ;
16 -> 50 ;
51 [label="gini = 0.0\nsamples = 66\nvalue = [66, 0]\nclass = <=50K", fillcolor="#e58139"] ;
50 -> 51 ;
52 [label="education_Some-college <= 0.5\ngini = 0.375\nsamples = 4\nvalue = [3, 1]\nclass = <=50K", fillcolor="#eeab7b"] ;
50 -> 52 ;
53 [label="gini = 0.0\nsamples = 2\nvalue = [2, 0]\nclass = <=50K", fillcolor="#e58139"] ;
52 -> 53 ;
54 [label="hours-per-week <= 35.0\ngini = 0.5\nsamples = 2\nvalue = [1, 1]\nclass = <=50K", fillcolor="#ffffff"] ;
52 -> 54 ;
55 [label="gini = 0.0\nsamples = 1\nvalue = [0, 1]\nclass = >50K", fillcolor="#399de5"] ;
54 -> 55 ;
56 [label="gini = 0.0\nsamples = 1\nvalue = [1, 0]\nclass = <=50K", fillcolor="#e58139"] ;
54 -> 56 ;
57 [label="work_Local-gov <= 0.5\ngini = 0.056\nsamples = 35\nvalue = [34, 1]\nclass = <=50K", fillcolor="#e6853f"] ;
15 -> 57 ;
58 [label="gini = 0.0\nsamples = 34\nvalue = [34, 0]\nclass = <=50K", fillcolor="#e58139"] ;
57 -> 58 ;
59 [label="gini = 0.0\nsamples = 1\nvalue = [0, 1]\nclass = >50K", fillcolor="#399de5"] ;
57 -> 59 ;
60 [label="job_Protective-serv <= 0.5\ngini = 0.016\nsamples = 1465\nvalue = [1453, 12]\nclass = <=50K", fillcolor="#e5823b"] ;
14 -> 60 ;
61 [label="educational-num <= 10.5\ngini = 0.014\nsamples = 1431\nvalue = [1421, 10]\nclass = <=50K", fillcolor="#e5823a"] ;
60 -> 61 ;
62 [label="work_Self-emp-inc <= 0.5\ngini = 0.008\nsamples = 1254\nvalue = [1249, 5]\nclass = <=50K", fillcolor="#e5823a"] ;
61 -> 62 ;
63 [label="job_Craft-repair <= 0.5\ngini = 0.006\nsamples = 1243\nvalue = [1239, 4]\nclass = <=50K", fillcolor="#e5813a"] ;
62 -> 63 ;
64 [label="fnlwgt <= 38966.5\ngini = 0.002\nsamples = 1076\nvalue = [1075, 1]\nclass = <=50K", fillcolor="#e58139"] ;
63 -> 64 ;
65 [label="fnlwgt <= 38100.5\ngini = 0.059\nsamples = 33\nvalue = [32, 1]\nclass = <=50K", fillcolor="#e6853f"] ;
64 -> 65 ;
66 [label="gini = 0.0\nsamples = 32\nvalue = [32, 0]\nclass = <=50K", fillcolor="#e58139"] ;
65 -> 66 ;
67 [label="gini = 0.0\nsamples = 1\nvalue = [0, 1]\nclass = >50K", fillcolor="#399de5"] ;
65 -> 67 ;
68 [label="gini = 0.0\nsamples = 1043\nvalue = [1043, 0]\nclass = <=50K", fillcolor="#e58139"] ;
64 -> 68 ;
69 [label="educational-num <= 9.5\ngini = 0.035\nsamples = 167\nvalue = [164, 3]\nclass = <=50K", fillcolor="#e5833d"] ;
63 -> 69 ;
70 [label="gini = 0.0\nsamples = 121\nvalue = [121, 0]\nclass = <=50K", fillcolor="#e58139"] ;
69 -> 70 ;
71 [label="marital_status_Divorced <= 0.5\ngini = 0.122\nsamples = 46\nvalue = [43, 3]\nclass = <=50K", fillcolor="#e78a47"] ;
69 -> 71 ;
72 [label="fnlwgt <= 179165.5\ngini = 0.054\nsamples = 36\nvalue = [35, 1]\nclass = <=50K", fillcolor="#e6853f"] ;
71 -> 72 ;
73 [label="fnlwgt <= 177201.0\ngini = 0.124\nsamples = 15\nvalue = [14, 1]\nclass = <=50K", fillcolor="#e78a47"] ;
72 -> 73 ;
74 [label="gini = 0.0\nsamples = 14\nvalue = [14, 0]\nclass = <=50K", fillcolor="#e58139"] ;
73 -> 74 ;
75 [label="gini = 0.0\nsamples = 1\nvalue = [0, 1]\nclass = >50K", fillcolor="#399de5"] ;
73 -> 75 ;
76 [label="gini = 0.0\nsamples = 21\nvalue = [21, 0]\nclass = <=50K", fillcolor="#e58139"] ;
72 -> 76 ;
77 [label="age <= 31.5\ngini = 0.32\nsamples = 10\nvalue = [8, 2]\nclass = <=50K", fillcolor="#eca06a"] ;
71 -> 77 ;
78 [label="fnlwgt <= 76211.0\ngini = 0.198\nsamples = 9\nvalue = [8, 1]\nclass = <=50K", fillcolor="#e89152"] ;
77 -> 78 ;
79 [label="fnlwgt <= 43669.0\ngini = 0.5\nsamples = 2\nvalue = [1, 1]\nclass = <=50K", fillcolor="#ffffff"] ;
78 -> 79 ;
80 [label="gini = 0.0\nsamples = 1\nvalue = [1, 0]\nclass = <=50K", fillcolor="#e58139"] ;
79 -> 80 ;
81 [label="gini = 0.0\nsamples = 1\nvalue = [0, 1]\nclass = >50K", fillcolor="#399de5"] ;
79 -> 81 ;
82 [label="gini = 0.0\nsamples = 7\nvalue = [7, 0]\nclass = <=50K", fillcolor="#e58139"] ;
78 -> 82 ;
83 [label="gini = 0.0\nsamples = 1\nvalue = [0, 1]\nclass = >50K", fillcolor="#399de5"] ;
77 -> 83 ;
84 [label="education_Some-college <= 0.5\ngini = 0.165\nsamples = 11\nvalue = [10, 1]\nclass = <=50K", fillcolor="#e88e4d"] ;
62 -> 84 ;
85 [label="gini = 0.0\nsamples = 8\nvalue = [8, 0]\nclass = <=50K", fillcolor="#e58139"] ;
84 -> 85 ;
86 [label="gender <= 0.5\ngini = 0.444\nsamples = 3\nvalue = [2, 1]\nclass = <=50K", fillcolor="#f2c09c"] ;
84 -> 86 ;
87 [label="gini = 0.0\nsamples = 1\nvalue = [0, 1]\nclass = >50K", fillcolor="#399de5"] ;
86 -> 87 ;
88 [label="gini = 0.0\nsamples = 2\nvalue = [2, 0]\nclass = <=50K", fillcolor="#e58139"] ;
86 -> 88 ;
89 [label="work_State-gov <= 0.5\ngini = 0.055\nsamples = 177\nvalue = [172, 5]\nclass = <=50K", fillcolor="#e6853f"] ;
61 -> 89 ;
90 [label="job_Craft-repair <= 0.5\ngini = 0.045\nsamples = 172\nvalue = [168, 4]\nclass = <=50K", fillcolor="#e6843e"] ;
89 -> 90 ;
91 [label="fnlwgt <= 371727.5\ngini = 0.026\nsamples = 151\nvalue = [149, 2]\nclass = <=50K", fillcolor="#e5833c"] ;
90 -> 91 ;
92 [label="job_Exec-managerial <= 0.5\ngini = 0.014\nsamples = 142\nvalue = [141, 1]\nclass = <=50K", fillcolor="#e5823a"] ;
91 -> 92 ;
93 [label="gini = 0.0\nsamples = 130\nvalue = [130, 0]\nclass = <=50K", fillcolor="#e58139"] ;
92 -> 93 ;
94 [label="age <= 28.0\ngini = 0.153\nsamples = 12\nvalue = [11, 1]\nclass = <=50K", fillcolor="#e78c4b"] ;
92 -> 94 ;
95 [label="gini = 0.0\nsamples = 1\nvalue = [0, 1]\nclass = >50K", fillcolor="#399de5"] ;
94 -> 95 ;
96 [label="gini = 0.0\nsamples = 11\nvalue = [11, 0]\nclass = <=50K", fillcolor="#e58139"] ;
94 -> 96 ;
97 [label="fnlwgt <= 380045.0\ngini = 0.198\nsamples = 9\nvalue = [8, 1]\nclass = <=50K", fillcolor="#e89152"] ;
91 -> 97 ;
98 [label="gini = 0.0\nsamples = 1\nvalue = [0, 1]\nclass = >50K", fillcolor="#399de5"] ;
97 -> 98 ;
99 [label="gini = 0.0\nsamples = 8\nvalue = [8, 0]\nclass = <=50K", fillcolor="#e58139"] ;
97 -> 99 ;
100 [label="relationship_Not-in-family <= 0.5\ngini = 0.172\nsamples = 21\nvalue = [19, 2]\nclass = <=50K", fillcolor="#e88e4e"] ;
90 -> 100 ;
101 [label="education_Assoc-acdm <= 0.5\ngini = 0.32\nsamples = 10\nvalue = [8, 2]\nclass = <=50K", fillcolor="#eca06a"] ;
100 -> 101 ;
102 [label="fnlwgt <= 102391.5\ngini = 0.444\nsamples = 6\nvalue = [4, 2]\nclass = <=50K", fillcolor="#f2c09c"] ;
101 -> 102 ;
103 [label="gini = 0.0\nsamples = 1\nvalue = [0, 1]\nclass = >50K", fillcolor="#399de5"] ;
102 -> 103 ;
104 [label="fnlwgt <= 145745.0\ngini = 0.32\nsamples = 5\nvalue = [4, 1]\nclass = <=50K", fillcolor="#eca06a"] ;
102 -> 104 ;
105 [label="gini = 0.0\nsamples = 3\nvalue = [3, 0]\nclass = <=50K", fillcolor="#e58139"] ;
104 -> 105 ;
106 [label="relationship_Own-child <= 0.5\ngini = 0.5\nsamples = 2\nvalue = [1, 1]\nclass = <=50K", fillcolor="#ffffff"] ;
104 -> 106 ;
107 [label="gini = 0.0\nsamples = 1\nvalue = [1, 0]\nclass = <=50K", fillcolor="#e58139"] ;
106 -> 107 ;
108 [label="gini = 0.0\nsamples = 1\nvalue = [0, 1]\nclass = >50K", fillcolor="#399de5"] ;
106 -> 108 ;
109 [label="gini = 0.0\nsamples = 4\nvalue = [4, 0]\nclass = <=50K", fillcolor="#e58139"] ;
101 -> 109 ;
110 [label="gini = 0.0\nsamples = 11\nvalue = [11, 0]\nclass = <=50K", fillcolor="#e58139"] ;
100 -> 110 ;
111 [label="education_Assoc-voc <= 0.5\ngini = 0.32\nsamples = 5\nvalue = [4, 1]\nclass = <=50K", fillcolor="#eca06a"] ;
89 -> 111 ;
112 [label="gini = 0.0\nsamples = 1\nvalue = [0, 1]\nclass = >50K", fillcolor="#399de5"] ;
111 -> 112 ;
113 [label="gini = 0.0\nsamples = 4\nvalue = [4, 0]\nclass = <=50K", fillcolor="#e58139"] ;
111 -> 113 ;
114 [label="marital_status_Separated <= 0.5\ngini = 0.111\nsamples = 34\nvalue = [32, 2]\nclass = <=50K", fillcolor="#e78945"] ;
60 -> 114 ;
115 [label="age <= 27.5\ngini = 0.061\nsamples = 32\nvalue = [31, 1]\nclass = <=50K", fillcolor="#e6853f"] ;
114 -> 115 ;
116 [label="gender <= 0.5\ngini = 0.245\nsamples = 7\nvalue = [6, 1]\nclass = <=50K", fillcolor="#e9965a"] ;
115 -> 116 ;
117 [label="fnlwgt <= 259131.0\ngini = 0.5\nsamples = 2\nvalue = [1, 1]\nclass = <=50K", fillcolor="#ffffff"] ;
116 -> 117 ;
118 [label="gini = 0.0\nsamples = 1\nvalue = [0, 1]\nclass = >50K", fillcolor="#399de5"] ;
117 -> 118 ;
119 [label="gini = 0.0\nsamples = 1\nvalue = [1, 0]\nclass = <=50K", fillcolor="#e58139"] ;
117 -> 119 ;
120 [label="gini = 0.0\nsamples = 5\nvalue = [5, 0]\nclass = <=50K", fillcolor="#e58139"] ;
116 -> 120 ;
121 [label="gini = 0.0\nsamples = 25\nvalue = [25, 0]\nclass = <=50K", fillcolor="#e58139"] ;
115 -> 121 ;
122 [label="work_Private <= 0.5\ngini = 0.5\nsamples = 2\nvalue = [1, 1]\nclass = <=50K", fillcolor="#ffffff"] ;
114 -> 122 ;
123 [label="gini = 0.0\nsamples = 1\nvalue = [1, 0]\nclass = <=50K", fillcolor="#e58139"] ;
122 -> 123 ;
124 [label="gini = 0.0\nsamples = 1\nvalue = [0, 1]\nclass = >50K", fillcolor="#399de5"] ;
122 -> 124 ;
125 [label="educational-num <= 11.5\ngini = 0.153\nsamples = 12\nvalue = [11, 1]\nclass = <=50K", fillcolor="#e78c4b"] ;
13 -> 125 ;
126 [label="gini = 0.0\nsamples = 11\nvalue = [11, 0]\nclass = <=50K", fillcolor="#e58139"] ;
125 -> 126 ;
127 [label="gini = 0.0\nsamples = 1\nvalue = [0, 1]\nclass = >50K", fillcolor="#399de5"] ;
125 -> 127 ;
128 [label="job_Exec-managerial <= 0.5\ngini = 0.355\nsamples = 13\nvalue = [10, 3]\nclass = <=50K", fillcolor="#eda774"] ;
6 -> 128 ;
129 [label="job_Craft-repair <= 0.5\ngini = 0.278\nsamples = 12\nvalue = [10, 2]\nclass = <=50K", fillcolor="#ea9a61"] ;
128 -> 129 ;
130 [label="job_Other-service <= 0.5\ngini = 0.165\nsamples = 11\nvalue = [10, 1]\nclass = <=50K", fillcolor="#e88e4d"] ;
129 -> 130 ;
131 [label="gini = 0.0\nsamples = 8\nvalue = [8, 0]\nclass = <=50K", fillcolor="#e58139"] ;
130 -> 131 ;
132 [label="educational-num <= 9.5\ngini = 0.444\nsamples = 3\nvalue = [2, 1]\nclass = <=50K", fillcolor="#f2c09c"] ;
130 -> 132 ;
133 [label="gini = 0.0\nsamples = 2\nvalue = [2, 0]\nclass = <=50K", fillcolor="#e58139"] ;
132 -> 133 ;
134 [label="gini = 0.0\nsamples = 1\nvalue = [0, 1]\nclass = >50K", fillcolor="#399de5"] ;
132 -> 134 ;
135 [label="gini = 0.0\nsamples = 1\nvalue = [0, 1]\nclass = >50K", fillcolor="#399de5"] ;
129 -> 135 ;
136 [label="gini = 0.0\nsamples = 1\nvalue = [0, 1]\nclass = >50K", fillcolor="#399de5"] ;
128 -> 136 ;
137 [label="job_Prof-specialty <= 0.5\ngini = 0.054\nsamples = 4360\nvalue = [4238, 122]\nclass = <=50K", fillcolor="#e6853f"] ;
5 -> 137 ;
138 [label="job_Exec-managerial <= 0.5\ngini = 0.047\nsamples = 4150\nvalue = [4049, 101]\nclass = <=50K", fillcolor="#e6843e"] ;
137 -> 138 ;
139 [label="capital-gain <= 4718.5\ngini = 0.04\nsamples = 3845\nvalue = [3766, 79]\nclass = <=50K", fillcolor="#e6843d"] ;
138 -> 139 ;
140 [label="job_Other-service <= 0.5\ngini = 0.038\nsamples = 3822\nvalue = [3747, 75]\nclass = <=50K", fillcolor="#e6843d"] ;
139 -> 140 ;
141 [label="marital_status_Married-AF-spouse <= 0.5\ngini = 0.048\nsamples = 3027\nvalue = [2953, 74]\nclass = <=50K", fillcolor="#e6843e"] ;
140 -> 141 ;
142 [label="relationship_Not-in-family <= 0.5\ngini = 0.047\nsamples = 3025\nvalue = [2952, 73]\nclass = <=50K", fillcolor="#e6843e"] ;
141 -> 142 ;
143 [label="job_Craft-repair <= 0.5\ngini = 0.025\nsamples = 1410\nvalue = [1392, 18]\nclass = <=50K", fillcolor="#e5833c"] ;
142 -> 143 ;
144 [label="education_Assoc-acdm <= 0.5\ngini = 0.018\nsamples = 1229\nvalue = [1218, 11]\nclass = <=50K", fillcolor="#e5823b"] ;
143 -> 144 ;
145 [label="work_Self-emp-inc <= 0.5\ngini = 0.014\nsamples = 1175\nvalue = [1167, 8]\nclass = <=50K", fillcolor="#e5823a"] ;
144 -> 145 ;
146 [label="Amer-Indian-Eskimo <= 0.5\ngini = 0.012\nsamples = 1168\nvalue = [1161, 7]\nclass = <=50K", fillcolor="#e5823a"] ;
145 -> 146 ;
147 [label="fnlwgt <= 185480.5\ngini = 0.01\nsamples = 1157\nvalue = [1151, 6]\nclass = <=50K", fillcolor="#e5823a"] ;
146 -> 147 ;
148 [label="hours-per-week <= 20.5\ngini = 0.003\nsamples = 639\nvalue = [638, 1]\nclass = <=50K", fillcolor="#e58139"] ;
147 -> 148 ;
149 [label="relationship_Other-relative <= 0.5\ngini = 0.034\nsamples = 58\nvalue = [57, 1]\nclass = <=50K", fillcolor="#e5833c"] ;
148 -> 149 ;
150 [label="gini = 0.0\nsamples = 50\nvalue = [50, 0]\nclass = <=50K", fillcolor="#e58139"] ;
149 -> 150 ;
151 [label="marital_status_Divorced <= 0.5\ngini = 0.219\nsamples = 8\nvalue = [7, 1]\nclass = <=50K", fillcolor="#e99355"] ;
149 -> 151 ;
152 [label="gini = 0.0\nsamples = 6\nvalue = [6, 0]\nclass = <=50K", fillcolor="#e58139"] ;
151 -> 152 ;
153 [label="work_Self-emp-not-inc <= 0.5\ngini = 0.5\nsamples = 2\nvalue = [1, 1]\nclass = <=50K", fillcolor="#ffffff"] ;
151 -> 153 ;
154 [label="gini = 0.0\nsamples = 1\nvalue = [0, 1]\nclass = >50K", fillcolor="#399de5"] ;
153 -> 154 ;
155 [label="gini = 0.0\nsamples = 1\nvalue = [1, 0]\nclass = <=50K", fillcolor="#e58139"] ;
153 -> 155 ;
156 [label="gini = 0.0\nsamples = 581\nvalue = [581, 0]\nclass = <=50K", fillcolor="#e58139"] ;
148 -> 156 ;
157 [label="fnlwgt <= 185613.5\ngini = 0.019\nsamples = 518\nvalue = [513, 5]\nclass = <=50K", fillcolor="#e5823b"] ;
147 -> 157 ;
158 [label="gini = 0.0\nsamples = 1\nvalue = [0, 1]\nclass = >50K", fillcolor="#399de5"] ;
157 -> 158 ;
159 [label="age <= 65.5\ngini = 0.015\nsamples = 517\nvalue = [513, 4]\nclass = <=50K", fillcolor="#e5823b"] ;
157 -> 159 ;
160 [label="education_10th <= 0.5\ngini = 0.012\nsamples = 501\nvalue = [498, 3]\nclass = <=50K", fillcolor="#e5823a"] ;
159 -> 160 ;
161 [label="work_Federal-gov <= 0.5\ngini = 0.008\nsamples = 478\nvalue = [476, 2]\nclass = <=50K", fillcolor="#e5823a"] ;
160 -> 161 ;
162 [label="age <= 57.5\ngini = 0.004\nsamples = 453\nvalue = [452, 1]\nclass = <=50K", fillcolor="#e58139"] ;
161 -> 162 ;
163 [label="gini = 0.0\nsamples = 419\nvalue = [419, 0]\nclass = <=50K", fillcolor="#e58139"] ;
162 -> 163 ;
164 [label="job_Sales <= 0.5\ngini = 0.057\nsamples = 34\nvalue = [33, 1]\nclass = <=50K", fillcolor="#e6853f"] ;
162 -> 164 ;
165 [label="gini = 0.0\nsamples = 31\nvalue = [31, 0]\nclass = <=50K", fillcolor="#e58139"] ;
164 -> 165 ;
166 [label="age <= 58.5\ngini = 0.444\nsamples = 3\nvalue = [2, 1]\nclass = <=50K", fillcolor="#f2c09c"] ;
164 -> 166 ;
167 [label="gini = 0.0\nsamples = 1\nvalue = [0, 1]\nclass = >50K", fillcolor="#399de5"] ;
166 -> 167 ;
168 [label="gini = 0.0\nsamples = 2\nvalue = [2, 0]\nclass = <=50K", fillcolor="#e58139"] ;
166 -> 168 ;
169 [label="educational-num <= 10.5\ngini = 0.077\nsamples = 25\nvalue = [24, 1]\nclass = <=50K", fillcolor="#e68641"] ;
161 -> 169 ;
170 [label="gini = 0.0\nsamples = 22\nvalue = [22, 0]\nclass = <=50K", fillcolor="#e58139"] ;
169 -> 170 ;
171 [label="marital_status_Divorced <= 0.5\ngini = 0.444\nsamples = 3\nvalue = [2, 1]\nclass = <=50K", fillcolor="#f2c09c"] ;
169 -> 171 ;
172 [label="gini = 0.0\nsamples = 1\nvalue = [1, 0]\nclass = <=50K", fillcolor="#e58139"] ;
171 -> 172 ;
173 [label="fnlwgt <= 230043.5\ngini = 0.5\nsamples = 2\nvalue = [1, 1]\nclass = <=50K", fillcolor="#ffffff"] ;
171 -> 173 ;
174 [label="gini = 0.0\nsamples = 1\nvalue = [1, 0]\nclass = <=50K", fillcolor="#e58139"] ;
173 -> 174 ;
175 [label="gini = 0.0\nsamples = 1\nvalue = [0, 1]\nclass = >50K", fillcolor="#399de5"] ;
173 -> 175 ;
176 [label="job_Transport-moving <= 0.5\ngini = 0.083\nsamples = 23\nvalue = [22, 1]\nclass = <=50K", fillcolor="#e68742"] ;
160 -> 176 ;
177 [label="gini = 0.0\nsamples = 22\nvalue = [22, 0]\nclass = <=50K", fillcolor="#e58139"] ;
176 -> 177 ;
178 [label="gini = 0.0\nsamples = 1\nvalue = [0, 1]\nclass = >50K", fillcolor="#399de5"] ;
176 -> 178 ;
179 [label="fnlwgt <= 190440.0\ngini = 0.117\nsamples = 16\nvalue = [15, 1]\nclass = <=50K", fillcolor="#e78946"] ;
159 -> 179 ;
180 [label="gini = 0.0\nsamples = 1\nvalue = [0, 1]\nclass = >50K", fillcolor="#399de5"] ;
179 -> 180 ;
181 [label="gini = 0.0\nsamples = 15\nvalue = [15, 0]\nclass = <=50K", fillcolor="#e58139"] ;
179 -> 181 ;
182 [label="job_Protective-serv <= 0.5\ngini = 0.165\nsamples = 11\nvalue = [10, 1]\nclass = <=50K", fillcolor="#e88e4d"] ;
146 -> 182 ;
183 [label="gini = 0.0\nsamples = 10\nvalue = [10, 0]\nclass = <=50K", fillcolor="#e58139"] ;
182 -> 183 ;
184 [label="gini = 0.0\nsamples = 1\nvalue = [0, 1]\nclass = >50K", fillcolor="#399de5"] ;
182 -> 184 ;
185 [label="age <= 74.0\ngini = 0.245\nsamples = 7\nvalue = [6, 1]\nclass = <=50K", fillcolor="#e9965a"] ;
145 -> 185 ;
186 [label="gini = 0.0\nsamples = 6\nvalue = [6, 0]\nclass = <=50K", fillcolor="#e58139"] ;
185 -> 186 ;
187 [label="gini = 0.0\nsamples = 1\nvalue = [0, 1]\nclass = >50K", fillcolor="#399de5"] ;
185 -> 187 ;
188 [label="fnlwgt <= 160421.5\ngini = 0.105\nsamples = 54\nvalue = [51, 3]\nclass = <=50K", fillcolor="#e78845"] ;
144 -> 188 ;
189 [label="gini = 0.0\nsamples = 29\nvalue = [29, 0]\nclass = <=50K", fillcolor="#e58139"] ;
188 -> 189 ;
190 [label="fnlwgt <= 165100.5\ngini = 0.211\nsamples = 25\nvalue = [22, 3]\nclass = <=50K", fillcolor="#e99254"] ;
188 -> 190 ;
191 [label="gini = 0.0\nsamples = 1\nvalue = [0, 1]\nclass = >50K", fillcolor="#399de5"] ;
190 -> 191 ;
192 [label="job_Tech-support <= 0.5\ngini = 0.153\nsamples = 24\nvalue = [22, 2]\nclass = <=50K", fillcolor="#e78c4b"] ;
190 -> 192 ;
193 [label="marital_status_Separated <= 0.5\ngini = 0.091\nsamples = 21\nvalue = [20, 1]\nclass = <=50K", fillcolor="#e68743"] ;
192 -> 193 ;
194 [label="gini = 0.0\nsamples = 18\nvalue = [18, 0]\nclass = <=50K", fillcolor="#e58139"] ;
193 -> 194 ;
195 [label="fnlwgt <= 218730.5\ngini = 0.444\nsamples = 3\nvalue = [2, 1]\nclass = <=50K", fillcolor="#f2c09c"] ;
193 -> 195 ;
196 [label="gini = 0.0\nsamples = 1\nvalue = [0, 1]\nclass = >50K", fillcolor="#399de5"] ;
195 -> 196 ;
197 [label="gini = 0.0\nsamples = 2\nvalue = [2, 0]\nclass = <=50K", fillcolor="#e58139"] ;
195 -> 197 ;
198 [label="marital_status_Widowed <= 0.5\ngini = 0.444\nsamples = 3\nvalue = [2, 1]\nclass = <=50K", fillcolor="#f2c09c"] ;
192 -> 198 ;
199 [label="gini = 0.0\nsamples = 2\nvalue = [2, 0]\nclass = <=50K", fillcolor="#e58139"] ;
198 -> 199 ;
200 [label="gini = 0.0\nsamples = 1\nvalue = [0, 1]\nclass = >50K", fillcolor="#399de5"] ;
198 -> 200 ;
201 [label="educational-num <= 9.5\ngini = 0.074\nsamples = 181\nvalue = [174, 7]\nclass = <=50K", fillcolor="#e68641"] ;
143 -> 201 ;
202 [label="fnlwgt <= 99393.5\ngini = 0.015\nsamples = 133\nvalue = [132, 1]\nclass = <=50K", fillcolor="#e5823b"] ;
201 -> 202 ;
203 [label="fnlwgt <= 98012.5\ngini = 0.124\nsamples = 15\nvalue = [14, 1]\nclass = <=50K", fillcolor="#e78a47"] ;
202 -> 203 ;
204 [label="gini = 0.0\nsamples = 14\nvalue = [14, 0]\nclass = <=50K", fillcolor="#e58139"] ;
203 -> 204 ;
205 [label="gini = 0.0\nsamples = 1\nvalue = [0, 1]\nclass = >50K", fillcolor="#399de5"] ;
203 -> 205 ;
206 [label="gini = 0.0\nsamples = 118\nvalue = [118, 0]\nclass = <=50K", fillcolor="#e58139"] ;
202 -> 206 ;
207 [label="fnlwgt <= 40507.5\ngini = 0.219\nsamples = 48\nvalue = [42, 6]\nclass = <=50K", fillcolor="#e99355"] ;
201 -> 207 ;
208 [label="White <= 0.5\ngini = 0.444\nsamples = 3\nvalue = [1, 2]\nclass = >50K", fillcolor="#9ccef2"] ;
207 -> 208 ;
209 [label="gini = 0.0\nsamples = 1\nvalue = [1, 0]\nclass = <=50K", fillcolor="#e58139"] ;
208 -> 209 ;
210 [label="gini = 0.0\nsamples = 2\nvalue = [0, 2]\nclass = >50K", fillcolor="#399de5"] ;
208 -> 210 ;
211 [label="fnlwgt <= 319161.5\ngini = 0.162\nsamples = 45\nvalue = [41, 4]\nclass = <=50K", fillcolor="#e88d4c"] ;
207 -> 211 ;
212 [label="age <= 46.5\ngini = 0.091\nsamples = 42\nvalue = [40, 2]\nclass = <=50K", fillcolor="#e68743"] ;
211 -> 212 ;
213 [label="gini = 0.0\nsamples = 31\nvalue = [31, 0]\nclass = <=50K", fillcolor="#e58139"] ;
212 -> 213 ;
214 [label="age <= 48.5\ngini = 0.298\nsamples = 11\nvalue = [9, 2]\nclass = <=50K", fillcolor="#eb9d65"] ;
212 -> 214 ;
215 [label="fnlwgt <= 189005.0\ngini = 0.444\nsamples = 3\nvalue = [1, 2]\nclass = >50K", fillcolor="#9ccef2"] ;
214 -> 215 ;
216 [label="gini = 0.0\nsamples = 1\nvalue = [1, 0]\nclass = <=50K", fillcolor="#e58139"] ;
215 -> 216 ;
217 [label="gini = 0.0\nsamples = 2\nvalue = [0, 2]\nclass = >50K", fillcolor="#399de5"] ;
215 -> 217 ;
218 [label="gini = 0.0\nsamples = 8\nvalue = [8, 0]\nclass = <=50K", fillcolor="#e58139"] ;
214 -> 218 ;
219 [label="relationship_Unmarried <= 0.5\ngini = 0.444\nsamples = 3\nvalue = [1, 2]\nclass = >50K", fillcolor="#9ccef2"] ;
211 -> 219 ;
220 [label="gini = 0.0\nsamples = 1\nvalue = [1, 0]\nclass = <=50K", fillcolor="#e58139"] ;
219 -> 220 ;
221 [label="gini = 0.0\nsamples = 2\nvalue = [0, 2]\nclass = >50K", fillcolor="#399de5"] ;
219 -> 221 ;
222 [label="education_Some-college <= 0.5\ngini = 0.066\nsamples = 1615\nvalue = [1560, 55]\nclass = <=50K", fillcolor="#e68540"] ;
142 -> 222 ;
223 [label="work_Local-gov <= 0.5\ngini = 0.051\nsamples = 1227\nvalue = [1195, 32]\nclass = <=50K", fillcolor="#e6843e"] ;
222 -> 223 ;
224 [label="age <= 89.0\ngini = 0.044\nsamples = 1162\nvalue = [1136, 26]\nclass = <=50K", fillcolor="#e6843e"] ;
223 -> 224 ;
225 [label="White <= 0.5\ngini = 0.042\nsamples = 1157\nvalue = [1132, 25]\nclass = <=50K", fillcolor="#e6843d"] ;
224 -> 225 ;
226 [label="gini = 0.0\nsamples = 201\nvalue = [201, 0]\nclass = <=50K", fillcolor="#e58139"] ;
225 -> 226 ;
227 [label="marital_status_Divorced <= 0.5\ngini = 0.051\nsamples = 956\nvalue = [931, 25]\nclass = <=50K", fillcolor="#e6843e"] ;
225 -> 227 ;
228 [label="fnlwgt <= 118143.0\ngini = 0.07\nsamples = 524\nvalue = [505, 19]\nclass = <=50K", fillcolor="#e68640"] ;
227 -> 228 ;
229 [label="job_Craft-repair <= 0.5\ngini = 0.014\nsamples = 138\nvalue = [137, 1]\nclass = <=50K", fillcolor="#e5823a"] ;
228 -> 229 ;
230 [label="gini = 0.0\nsamples = 112\nvalue = [112, 0]\nclass = <=50K", fillcolor="#e58139"] ;
229 -> 230 ;
231 [label="age <= 50.0\ngini = 0.074\nsamples = 26\nvalue = [25, 1]\nclass = <=50K", fillcolor="#e68641"] ;
229 -> 231 ;
232 [label="gini = 0.0\nsamples = 16\nvalue = [16, 0]\nclass = <=50K", fillcolor="#e58139"] ;
231 -> 232 ;
233 [label="age <= 51.5\ngini = 0.18\nsamples = 10\nvalue = [9, 1]\nclass = <=50K", fillcolor="#e88f4f"] ;
231 -> 233 ;
234 [label="gini = 0.0\nsamples = 1\nvalue = [0, 1]\nclass = >50K", fillcolor="#399de5"] ;
233 -> 234 ;
235 [label="gini = 0.0\nsamples = 9\nvalue = [9, 0]\nclass = <=50K", fillcolor="#e58139"] ;
233 -> 235 ;
236 [label="fnlwgt <= 118492.0\ngini = 0.089\nsamples = 386\nvalue = [368, 18]\nclass = <=50K", fillcolor="#e68743"] ;
228 -> 236 ;
237 [label="gini = 0.0\nsamples = 1\nvalue = [0, 1]\nclass = >50K", fillcolor="#399de5"] ;
236 -> 237 ;
238 [label="fnlwgt <= 119565.0\ngini = 0.084\nsamples = 385\nvalue = [368, 17]\nclass = <=50K", fillcolor="#e68742"] ;
236 -> 238 ;
239 [label="hours-per-week <= 31.0\ngini = 0.444\nsamples = 3\nvalue = [2, 1]\nclass = <=50K", fillcolor="#f2c09c"] ;
238 -> 239 ;
240 [label="gini = 0.0\nsamples = 1\nvalue = [0, 1]\nclass = >50K", fillcolor="#399de5"] ;
239 -> 240 ;
241 [label="gini = 0.0\nsamples = 2\nvalue = [2, 0]\nclass = <=50K", fillcolor="#e58139"] ;
239 -> 241 ;
242 [label="hours-per-week <= 39.0\ngini = 0.08\nsamples = 382\nvalue = [366, 16]\nclass = <=50K", fillcolor="#e68742"] ;
238 -> 242 ;
243 [label="fnlwgt <= 164416.5\ngini = 0.037\nsamples = 159\nvalue = [156, 3]\nclass = <=50K", fillcolor="#e6833d"] ;
242 -> 243 ;
244 [label="fnlwgt <= 163796.5\ngini = 0.109\nsamples = 52\nvalue = [49, 3]\nclass = <=50K", fillcolor="#e78945"] ;
243 -> 244 ;
245 [label="fnlwgt <= 162402.0\ngini = 0.075\nsamples = 51\nvalue = [49, 2]\nclass = <=50K", fillcolor="#e68641"] ;
244 -> 245 ;
246 [label="job_? <= 0.5\ngini = 0.042\nsamples = 47\nvalue = [46, 1]\nclass = <=50K", fillcolor="#e6843d"] ;
245 -> 246 ;
247 [label="gini = 0.0\nsamples = 33\nvalue = [33, 0]\nclass = <=50K", fillcolor="#e58139"] ;
246 -> 247 ;
248 [label="hours-per-week <= 21.0\ngini = 0.133\nsamples = 14\nvalue = [13, 1]\nclass = <=50K", fillcolor="#e78b48"] ;
246 -> 248 ;
249 [label="gini = 0.0\nsamples = 10\nvalue = [10, 0]\nclass = <=50K", fillcolor="#e58139"] ;
248 -> 249 ;
250 [label="hours-per-week <= 23.5\ngini = 0.375\nsamples = 4\nvalue = [3, 1]\nclass = <=50K", fillcolor="#eeab7b"] ;
248 -> 250 ;
251 [label="gini = 0.0\nsamples = 1\nvalue = [0, 1]\nclass = >50K", fillcolor="#399de5"] ;
250 -> 251 ;
252 [label="gini = 0.0\nsamples = 3\nvalue = [3, 0]\nclass = <=50K", fillcolor="#e58139"] ;
250 -> 252 ;
253 [label="job_Sales <= 0.5\ngini = 0.375\nsamples = 4\nvalue = [3, 1]\nclass = <=50K", fillcolor="#eeab7b"] ;
245 -> 253 ;
254 [label="gini = 0.0\nsamples = 3\nvalue = [3, 0]\nclass = <=50K", fillcolor="#e58139"] ;
253 -> 254 ;
255 [label="gini = 0.0\nsamples = 1\nvalue = [0, 1]\nclass = >50K", fillcolor="#399de5"] ;
253 -> 255 ;
256 [label="gini = 0.0\nsamples = 1\nvalue = [0, 1]\nclass = >50K", fillcolor="#399de5"] ;
244 -> 256 ;
257 [label="gini = 0.0\nsamples = 107\nvalue = [107, 0]\nclass = <=50K", fillcolor="#e58139"] ;
243 -> 257 ;
258 [label="age <= 73.5\ngini = 0.11\nsamples = 223\nvalue = [210, 13]\nclass = <=50K", fillcolor="#e78945"] ;
242 -> 258 ;
259 [label="education_7th-8th <= 0.5\ngini = 0.103\nsamples = 221\nvalue = [209, 12]\nclass = <=50K", fillcolor="#e68844"] ;
258 -> 259 ;
260 [label="education_12th <= 0.5\ngini = 0.095\nsamples = 219\nvalue = [208, 11]\nclass = <=50K", fillcolor="#e68843"] ;
259 -> 260 ;
261 [label="work_State-gov <= 0.5\ngini = 0.088\nsamples = 216\nvalue = [206, 10]\nclass = <=50K", fillcolor="#e68743"] ;
260 -> 261 ;
262 [label="marital_status_Separated <= 0.5\ngini = 0.081\nsamples = 213\nvalue = [204, 9]\nclass = <=50K", fillcolor="#e68742"] ;
261 -> 262 ;
263 [label="fnlwgt <= 348345.5\ngini = 0.054\nsamples = 181\nvalue = [176, 5]\nclass = <=50K", fillcolor="#e6853f"] ;
262 -> 263 ;
264 [label="age <= 63.5\ngini = 0.035\nsamples = 167\nvalue = [164, 3]\nclass = <=50K", fillcolor="#e5833d"] ;
263 -> 264 ;
265 [label="education_Assoc-voc <= 0.5\ngini = 0.013\nsamples = 151\nvalue = [150, 1]\nclass = <=50K", fillcolor="#e5823a"] ;
264 -> 265 ;
266 [label="gini = 0.0\nsamples = 143\nvalue = [143, 0]\nclass = <=50K", fillcolor="#e58139"] ;
265 -> 266 ;
267 [label="fnlwgt <= 190457.5\ngini = 0.219\nsamples = 8\nvalue = [7, 1]\nclass = <=50K", fillcolor="#e99355"] ;
265 -> 267 ;
268 [label="work_Private <= 0.5\ngini = 0.5\nsamples = 2\nvalue = [1, 1]\nclass = <=50K", fillcolor="#ffffff"] ;
267 -> 268 ;
269 [label="gini = 0.0\nsamples = 1\nvalue = [1, 0]\nclass = <=50K", fillcolor="#e58139"] ;
268 -> 269 ;
270 [label="gini = 0.0\nsamples = 1\nvalue = [0, 1]\nclass = >50K", fillcolor="#399de5"] ;
268 -> 270 ;
271 [label="gini = 0.0\nsamples = 6\nvalue = [6, 0]\nclass = <=50K", fillcolor="#e58139"] ;
267 -> 271 ;
272 [label="age <= 66.5\ngini = 0.219\nsamples = 16\nvalue = [14, 2]\nclass = <=50K", fillcolor="#e99355"] ;
264 -> 272 ;
273 [label="gender <= 0.5\ngini = 0.346\nsamples = 9\nvalue = [7, 2]\nclass = <=50K", fillcolor="#eca572"] ;
272 -> 273 ;
274 [label="education_HS-grad <= 0.5\ngini = 0.444\nsamples = 6\nvalue = [4, 2]\nclass = <=50K", fillcolor="#f2c09c"] ;
273 -> 274 ;
275 [label="gini = 0.0\nsamples = 2\nvalue = [2, 0]\nclass = <=50K", fillcolor="#e58139"] ;
274 -> 275 ;
276 [label="fnlwgt <= 188896.5\ngini = 0.5\nsamples = 4\nvalue = [2, 2]\nclass = <=50K", fillcolor="#ffffff"] ;
274 -> 276 ;
277 [label="gini = 0.0\nsamples = 1\nvalue = [0, 1]\nclass = >50K", fillcolor="#399de5"] ;
276 -> 277 ;
278 [label="fnlwgt <= 225219.5\ngini = 0.444\nsamples = 3\nvalue = [2, 1]\nclass = <=50K", fillcolor="#f2c09c"] ;
276 -> 278 ;
279 [label="gini = 0.0\nsamples = 1\nvalue = [1, 0]\nclass = <=50K", fillcolor="#e58139"] ;
278 -> 279 ;
280 [label="fnlwgt <= 262189.0\ngini = 0.5\nsamples = 2\nvalue = [1, 1]\nclass = <=50K", fillcolor="#ffffff"] ;
278 -> 280 ;
281 [label="gini = 0.0\nsamples = 1\nvalue = [0, 1]\nclass = >50K", fillcolor="#399de5"] ;
280 -> 281 ;
282 [label="gini = 0.0\nsamples = 1\nvalue = [1, 0]\nclass = <=50K", fillcolor="#e58139"] ;
280 -> 282 ;
283 [label="gini = 0.0\nsamples = 3\nvalue = [3, 0]\nclass = <=50K", fillcolor="#e58139"] ;
273 -> 283 ;
284 [label="gini = 0.0\nsamples = 7\nvalue = [7, 0]\nclass = <=50K", fillcolor="#e58139"] ;
272 -> 284 ;
285 [label="fnlwgt <= 351208.0\ngini = 0.245\nsamples = 14\nvalue = [12, 2]\nclass = <=50K", fillcolor="#e9965a"] ;
263 -> 285 ;
286 [label="gini = 0.0\nsamples = 1\nvalue = [0, 1]\nclass = >50K", fillcolor="#399de5"] ;
285 -> 286 ;
287 [label="fnlwgt <= 363169.5\ngini = 0.142\nsamples = 13\nvalue = [12, 1]\nclass = <=50K", fillcolor="#e78c49"] ;
285 -> 287 ;
288 [label="fnlwgt <= 357902.0\ngini = 0.444\nsamples = 3\nvalue = [2, 1]\nclass = <=50K", fillcolor="#f2c09c"] ;
287 -> 288 ;
289 [label="gini = 0.0\nsamples = 2\nvalue = [2, 0]\nclass = <=50K", fillcolor="#e58139"] ;
288 -> 289 ;
290 [label="gini = 0.0\nsamples = 1\nvalue = [0, 1]\nclass = >50K", fillcolor="#399de5"] ;
288 -> 290 ;
291 [label="gini = 0.0\nsamples = 10\nvalue = [10, 0]\nclass = <=50K", fillcolor="#e58139"] ;
287 -> 291 ;
292 [label="job_Adm-clerical <= 0.5\ngini = 0.219\nsamples = 32\nvalue = [28, 4]\nclass = <=50K", fillcolor="#e99355"] ;
262 -> 292 ;
293 [label="job_Craft-repair <= 0.5\ngini = 0.074\nsamples = 26\nvalue = [25, 1]\nclass = <=50K", fillcolor="#e68641"] ;
292 -> 293 ;
294 [label="gini = 0.0\nsamples = 20\nvalue = [20, 0]\nclass = <=50K", fillcolor="#e58139"] ;
293 -> 294 ;
295 [label="age <= 42.0\ngini = 0.278\nsamples = 6\nvalue = [5, 1]\nclass = <=50K", fillcolor="#ea9a61"] ;
293 -> 295 ;
296 [label="gini = 0.0\nsamples = 4\nvalue = [4, 0]\nclass = <=50K", fillcolor="#e58139"] ;
295 -> 296 ;
297 [label="work_Private <= 0.5\ngini = 0.5\nsamples = 2\nvalue = [1, 1]\nclass = <=50K", fillcolor="#ffffff"] ;
295 -> 297 ;
298 [label="gini = 0.0\nsamples = 1\nvalue = [1, 0]\nclass = <=50K", fillcolor="#e58139"] ;
297 -> 298 ;
299 [label="gini = 0.0\nsamples = 1\nvalue = [0, 1]\nclass = >50K", fillcolor="#399de5"] ;
297 -> 299 ;
300 [label="fnlwgt <= 173840.0\ngini = 0.5\nsamples = 6\nvalue = [3, 3]\nclass = <=50K", fillcolor="#ffffff"] ;
292 -> 300 ;
301 [label="gini = 0.0\nsamples = 2\nvalue = [2, 0]\nclass = <=50K", fillcolor="#e58139"] ;
300 -> 301 ;
302 [label="fnlwgt <= 242426.5\ngini = 0.375\nsamples = 4\nvalue = [1, 3]\nclass = >50K", fillcolor="#7bbeee"] ;
300 -> 302 ;
303 [label="fnlwgt <= 202598.5\ngini = 0.5\nsamples = 2\nvalue = [1, 1]\nclass = <=50K", fillcolor="#ffffff"] ;
302 -> 303 ;
304 [label="gini = 0.0\nsamples = 1\nvalue = [0, 1]\nclass = >50K", fillcolor="#399de5"] ;
303 -> 304 ;
305 [label="gini = 0.0\nsamples = 1\nvalue = [1, 0]\nclass = <=50K", fillcolor="#e58139"] ;
303 -> 305 ;
306 [label="gini = 0.0\nsamples = 2\nvalue = [0, 2]\nclass = >50K", fillcolor="#399de5"] ;
302 -> 306 ;
307 [label="job_Protective-serv <= 0.5\ngini = 0.444\nsamples = 3\nvalue = [2, 1]\nclass = <=50K", fillcolor="#f2c09c"] ;
261 -> 307 ;
308 [label="gini = 0.0\nsamples = 2\nvalue = [2, 0]\nclass = <=50K", fillcolor="#e58139"] ;
307 -> 308 ;
309 [label="gini = 0.0\nsamples = 1\nvalue = [0, 1]\nclass = >50K", fillcolor="#399de5"] ;
307 -> 309 ;
310 [label="capital-loss <= 782.0\ngini = 0.444\nsamples = 3\nvalue = [2, 1]\nclass = <=50K", fillcolor="#f2c09c"] ;
260 -> 310 ;
311 [label="gini = 0.0\nsamples = 2\nvalue = [2, 0]\nclass = <=50K", fillcolor="#e58139"] ;
310 -> 311 ;
312 [label="gini = 0.0\nsamples = 1\nvalue = [0, 1]\nclass = >50K", fillcolor="#399de5"] ;
310 -> 312 ;
313 [label="marital_status_Never-married <= 0.5\ngini = 0.5\nsamples = 2\nvalue = [1, 1]\nclass = <=50K", fillcolor="#ffffff"] ;
259 -> 313 ;
314 [label="gini = 0.0\nsamples = 1\nvalue = [1, 0]\nclass = <=50K", fillcolor="#e58139"] ;
313 -> 314 ;
315 [label="gini = 0.0\nsamples = 1\nvalue = [0, 1]\nclass = >50K", fillcolor="#399de5"] ;
313 -> 315 ;
316 [label="marital_status_Never-married <= 0.5\ngini = 0.5\nsamples = 2\nvalue = [1, 1]\nclass = <=50K", fillcolor="#ffffff"] ;
258 -> 316 ;
317 [label="gini = 0.0\nsamples = 1\nvalue = [1, 0]\nclass = <=50K", fillcolor="#e58139"] ;
316 -> 317 ;
318 [label="gini = 0.0\nsamples = 1\nvalue = [0, 1]\nclass = >50K", fillcolor="#399de5"] ;
316 -> 318 ;
319 [label="education_11th <= 0.5\ngini = 0.027\nsamples = 432\nvalue = [426, 6]\nclass = <=50K", fillcolor="#e5833c"] ;
227 -> 319 ;
320 [label="age <= 56.5\ngini = 0.023\nsamples = 421\nvalue = [416, 5]\nclass = <=50K", fillcolor="#e5833b"] ;
319 -> 320 ;
321 [label="job_Craft-repair <= 0.5\ngini = 0.012\nsamples = 336\nvalue = [334, 2]\nclass = <=50K", fillcolor="#e5823a"] ;
320 -> 321 ;
322 [label="gini = 0.0\nsamples = 256\nvalue = [256, 0]\nclass = <=50K", fillcolor="#e58139"] ;
321 -> 322 ;
323 [label="age <= 43.5\ngini = 0.049\nsamples = 80\nvalue = [78, 2]\nclass = <=50K", fillcolor="#e6843e"] ;
321 -> 323 ;
324 [label="gini = 0.0\nsamples = 50\nvalue = [50, 0]\nclass = <=50K", fillcolor="#e58139"] ;
323 -> 324 ;
325 [label="age <= 44.5\ngini = 0.124\nsamples = 30\nvalue = [28, 2]\nclass = <=50K", fillcolor="#e78a47"] ;
323 -> 325 ;
326 [label="fnlwgt <= 85951.0\ngini = 0.444\nsamples = 3\nvalue = [2, 1]\nclass = <=50K", fillcolor="#f2c09c"] ;
325 -> 326 ;
327 [label="gini = 0.0\nsamples = 1\nvalue = [0, 1]\nclass = >50K", fillcolor="#399de5"] ;
326 -> 327 ;
328 [label="gini = 0.0\nsamples = 2\nvalue = [2, 0]\nclass = <=50K", fillcolor="#e58139"] ;
326 -> 328 ;
329 [label="fnlwgt <= 229718.5\ngini = 0.071\nsamples = 27\nvalue = [26, 1]\nclass = <=50K", fillcolor="#e68641"] ;
325 -> 329 ;
330 [label="gini = 0.0\nsamples = 19\nvalue = [19, 0]\nclass = <=50K", fillcolor="#e58139"] ;
329 -> 330 ;
331 [label="fnlwgt <= 260008.5\ngini = 0.219\nsamples = 8\nvalue = [7, 1]\nclass = <=50K", fillcolor="#e99355"] ;
329 -> 331 ;
332 [label="gini = 0.0\nsamples = 1\nvalue = [0, 1]\nclass = >50K", fillcolor="#399de5"] ;
331 -> 332 ;
333 [label="gini = 0.0\nsamples = 7\nvalue = [7, 0]\nclass = <=50K", fillcolor="#e58139"] ;
331 -> 333 ;
334 [label="fnlwgt <= 335930.5\ngini = 0.068\nsamples = 85\nvalue = [82, 3]\nclass = <=50K", fillcolor="#e68640"] ;
320 -> 334 ;
335 [label="job_Craft-repair <= 0.5\ngini = 0.048\nsamples = 81\nvalue = [79, 2]\nclass = <=50K", fillcolor="#e6843e"] ;
334 -> 335 ;
336 [label="age <= 68.0\ngini = 0.027\nsamples = 73\nvalue = [72, 1]\nclass = <=50K", fillcolor="#e5833c"] ;
335 -> 336 ;
337 [label="gini = 0.0\nsamples = 58\nvalue = [58, 0]\nclass = <=50K", fillcolor="#e58139"] ;
336 -> 337 ;
338 [label="hours-per-week <= 37.5\ngini = 0.124\nsamples = 15\nvalue = [14, 1]\nclass = <=50K", fillcolor="#e78a47"] ;
336 -> 338 ;
339 [label="gini = 0.0\nsamples = 13\nvalue = [13, 0]\nclass = <=50K", fillcolor="#e58139"] ;
338 -> 339 ;
340 [label="work_Private <= 0.5\ngini = 0.5\nsamples = 2\nvalue = [1, 1]\nclass = <=50K", fillcolor="#ffffff"] ;
338 -> 340 ;
341 [label="gini = 0.0\nsamples = 1\nvalue = [0, 1]\nclass = >50K", fillcolor="#399de5"] ;
340 -> 341 ;
342 [label="gini = 0.0\nsamples = 1\nvalue = [1, 0]\nclass = <=50K", fillcolor="#e58139"] ;
340 -> 342 ;
343 [label="fnlwgt <= 120628.0\ngini = 0.219\nsamples = 8\nvalue = [7, 1]\nclass = <=50K", fillcolor="#e99355"] ;
335 -> 343 ;
344 [label="gini = 0.0\nsamples = 1\nvalue = [0, 1]\nclass = >50K", fillcolor="#399de5"] ;
343 -> 344 ;
345 [label="gini = 0.0\nsamples = 7\nvalue = [7, 0]\nclass = <=50K", fillcolor="#e58139"] ;
343 -> 345 ;
346 [label="age <= 58.5\ngini = 0.375\nsamples = 4\nvalue = [3, 1]\nclass = <=50K", fillcolor="#eeab7b"] ;
334 -> 346 ;
347 [label="gini = 0.0\nsamples = 1\nvalue = [0, 1]\nclass = >50K", fillcolor="#399de5"] ;
346 -> 347 ;
348 [label="gini = 0.0\nsamples = 3\nvalue = [3, 0]\nclass = <=50K", fillcolor="#e58139"] ;
346 -> 348 ;
349 [label="fnlwgt <= 212595.5\ngini = 0.165\nsamples = 11\nvalue = [10, 1]\nclass = <=50K", fillcolor="#e88e4d"] ;
319 -> 349 ;
350 [label="gini = 0.0\nsamples = 8\nvalue = [8, 0]\nclass = <=50K", fillcolor="#e58139"] ;
349 -> 350 ;
351 [label="job_Adm-clerical <= 0.5\ngini = 0.444\nsamples = 3\nvalue = [2, 1]\nclass = <=50K", fillcolor="#f2c09c"] ;
349 -> 351 ;
352 [label="gini = 0.0\nsamples = 2\nvalue = [2, 0]\nclass = <=50K", fillcolor="#e58139"] ;
351 -> 352 ;
353 [label="gini = 0.0\nsamples = 1\nvalue = [0, 1]\nclass = >50K", fillcolor="#399de5"] ;
351 -> 353 ;
354 [label="fnlwgt <= 181978.0\ngini = 0.32\nsamples = 5\nvalue = [4, 1]\nclass = <=50K", fillcolor="#eca06a"] ;
224 -> 354 ;
355 [label="gini = 0.0\nsamples = 4\nvalue = [4, 0]\nclass = <=50K", fillcolor="#e58139"] ;
354 -> 355 ;
356 [label="gini = 0.0\nsamples = 1\nvalue = [0, 1]\nclass = >50K", fillcolor="#399de5"] ;
354 -> 356 ;
357 [label="Other <= 0.5\ngini = 0.168\nsamples = 65\nvalue = [59, 6]\nclass = <=50K", fillcolor="#e88e4d"] ;
223 -> 357 ;
358 [label="fnlwgt <= 29701.0\ngini = 0.144\nsamples = 64\nvalue = [59, 5]\nclass = <=50K", fillcolor="#e78c4a"] ;
357 -> 358 ;
359 [label="gini = 0.0\nsamples = 1\nvalue = [0, 1]\nclass = >50K", fillcolor="#399de5"] ;
358 -> 359 ;
360 [label="age <= 63.0\ngini = 0.119\nsamples = 63\nvalue = [59, 4]\nclass = <=50K", fillcolor="#e78a46"] ;
358 -> 360 ;
361 [label="job_Handlers-cleaners <= 0.5\ngini = 0.07\nsamples = 55\nvalue = [53, 2]\nclass = <=50K", fillcolor="#e68640"] ;
360 -> 361 ;
362 [label="job_Protective-serv <= 0.5\ngini = 0.038\nsamples = 52\nvalue = [51, 1]\nclass = <=50K", fillcolor="#e6833d"] ;
361 -> 362 ;
363 [label="gini = 0.0\nsamples = 44\nvalue = [44, 0]\nclass = <=50K", fillcolor="#e58139"] ;
362 -> 363 ;
364 [label="age <= 36.5\ngini = 0.219\nsamples = 8\nvalue = [7, 1]\nclass = <=50K", fillcolor="#e99355"] ;
362 -> 364 ;
365 [label="gini = 0.0\nsamples = 1\nvalue = [0, 1]\nclass = >50K", fillcolor="#399de5"] ;
364 -> 365 ;
366 [label="gini = 0.0\nsamples = 7\nvalue = [7, 0]\nclass = <=50K", fillcolor="#e58139"] ;
364 -> 366 ;
367 [label="education_HS-grad <= 0.5\ngini = 0.444\nsamples = 3\nvalue = [2, 1]\nclass = <=50K", fillcolor="#f2c09c"] ;
361 -> 367 ;
368 [label="gini = 0.0\nsamples = 2\nvalue = [2, 0]\nclass = <=50K", fillcolor="#e58139"] ;
367 -> 368 ;
369 [label="gini = 0.0\nsamples = 1\nvalue = [0, 1]\nclass = >50K", fillcolor="#399de5"] ;
367 -> 369 ;
370 [label="job_Craft-repair <= 0.5\ngini = 0.375\nsamples = 8\nvalue = [6, 2]\nclass = <=50K", fillcolor="#eeab7b"] ;
360 -> 370 ;
371 [label="age <= 67.0\ngini = 0.245\nsamples = 7\nvalue = [6, 1]\nclass = <=50K", fillcolor="#e9965a"] ;
370 -> 371 ;
372 [label="hours-per-week <= 37.5\ngini = 0.444\nsamples = 3\nvalue = [2, 1]\nclass = <=50K", fillcolor="#f2c09c"] ;
371 -> 372 ;
373 [label="fnlwgt <= 228154.0\ngini = 0.5\nsamples = 2\nvalue = [1, 1]\nclass = <=50K", fillcolor="#ffffff"] ;
372 -> 373 ;
374 [label="gini = 0.0\nsamples = 1\nvalue = [0, 1]\nclass = >50K", fillcolor="#399de5"] ;
373 -> 374 ;
375 [label="gini = 0.0\nsamples = 1\nvalue = [1, 0]\nclass = <=50K", fillcolor="#e58139"] ;
373 -> 375 ;
376 [label="gini = 0.0\nsamples = 1\nvalue = [1, 0]\nclass = <=50K", fillcolor="#e58139"] ;
372 -> 376 ;
377 [label="gini = 0.0\nsamples = 4\nvalue = [4, 0]\nclass = <=50K", fillcolor="#e58139"] ;
371 -> 377 ;
378 [label="gini = 0.0\nsamples = 1\nvalue = [0, 1]\nclass = >50K", fillcolor="#399de5"] ;
370 -> 378 ;
379 [label="gini = 0.0\nsamples = 1\nvalue = [0, 1]\nclass = >50K", fillcolor="#399de5"] ;
357 -> 379 ;
380 [label="work_Self-emp-inc <= 0.5\ngini = 0.112\nsamples = 388\nvalue = [365, 23]\nclass = <=50K", fillcolor="#e78945"] ;
222 -> 380 ;
381 [label="job_Adm-clerical <= 0.5\ngini = 0.103\nsamples = 384\nvalue = [363, 21]\nclass = <=50K", fillcolor="#e78844"] ;
380 -> 381 ;
382 [label="age <= 46.5\ngini = 0.144\nsamples = 256\nvalue = [236, 20]\nclass = <=50K", fillcolor="#e78c4a"] ;
381 -> 382 ;
383 [label="job_Tech-support <= 0.5\ngini = 0.1\nsamples = 152\nvalue = [144, 8]\nclass = <=50K", fillcolor="#e68844"] ;
382 -> 383 ;
384 [label="job_Protective-serv <= 0.5\ngini = 0.071\nsamples = 136\nvalue = [131, 5]\nclass = <=50K", fillcolor="#e68641"] ;
383 -> 384 ;
385 [label="age <= 36.5\ngini = 0.059\nsamples = 132\nvalue = [128, 4]\nclass = <=50K", fillcolor="#e6853f"] ;
384 -> 385 ;
386 [label="fnlwgt <= 239723.5\ngini = 0.136\nsamples = 41\nvalue = [38, 3]\nclass = <=50K", fillcolor="#e78b49"] ;
385 -> 386 ;
387 [label="work_? <= 0.5\ngini = 0.057\nsamples = 34\nvalue = [33, 1]\nclass = <=50K", fillcolor="#e6853f"] ;
386 -> 387 ;
388 [label="gini = 0.0\nsamples = 31\nvalue = [31, 0]\nclass = <=50K", fillcolor="#e58139"] ;
387 -> 388 ;
389 [label="fnlwgt <= 165026.5\ngini = 0.444\nsamples = 3\nvalue = [2, 1]\nclass = <=50K", fillcolor="#f2c09c"] ;
387 -> 389 ;
390 [label="gini = 0.0\nsamples = 2\nvalue = [2, 0]\nclass = <=50K", fillcolor="#e58139"] ;
389 -> 390 ;
391 [label="gini = 0.0\nsamples = 1\nvalue = [0, 1]\nclass = >50K", fillcolor="#399de5"] ;
389 -> 391 ;
392 [label="fnlwgt <= 296460.5\ngini = 0.408\nsamples = 7\nvalue = [5, 2]\nclass = <=50K", fillcolor="#efb388"] ;
386 -> 392 ;
393 [label="job_Sales <= 0.5\ngini = 0.444\nsamples = 3\nvalue = [1, 2]\nclass = >50K", fillcolor="#9ccef2"] ;
392 -> 393 ;
394 [label="gini = 0.0\nsamples = 2\nvalue = [0, 2]\nclass = >50K", fillcolor="#399de5"] ;
393 -> 394 ;
395 [label="gini = 0.0\nsamples = 1\nvalue = [1, 0]\nclass = <=50K", fillcolor="#e58139"] ;
393 -> 395 ;
396 [label="gini = 0.0\nsamples = 4\nvalue = [4, 0]\nclass = <=50K", fillcolor="#e58139"] ;
392 -> 396 ;
397 [label="work_Self-emp-not-inc <= 0.5\ngini = 0.022\nsamples = 91\nvalue = [90, 1]\nclass = <=50K", fillcolor="#e5823b"] ;
385 -> 397 ;
398 [label="gini = 0.0\nsamples = 82\nvalue = [82, 0]\nclass = <=50K", fillcolor="#e58139"] ;
397 -> 398 ;
399 [label="age <= 40.5\ngini = 0.198\nsamples = 9\nvalue = [8, 1]\nclass = <=50K", fillcolor="#e89152"] ;
397 -> 399 ;
400 [label="age <= 39.0\ngini = 0.375\nsamples = 4\nvalue = [3, 1]\nclass = <=50K", fillcolor="#eeab7b"] ;
399 -> 400 ;
401 [label="gini = 0.0\nsamples = 3\nvalue = [3, 0]\nclass = <=50K", fillcolor="#e58139"] ;
400 -> 401 ;
402 [label="gini = 0.0\nsamples = 1\nvalue = [0, 1]\nclass = >50K", fillcolor="#399de5"] ;
400 -> 402 ;
403 [label="gini = 0.0\nsamples = 5\nvalue = [5, 0]\nclass = <=50K", fillcolor="#e58139"] ;
399 -> 403 ;
404 [label="fnlwgt <= 176807.5\ngini = 0.375\nsamples = 4\nvalue = [3, 1]\nclass = <=50K", fillcolor="#eeab7b"] ;
384 -> 404 ;
405 [label="gini = 0.0\nsamples = 2\nvalue = [2, 0]\nclass = <=50K", fillcolor="#e58139"] ;
404 -> 405 ;
406 [label="gender <= 0.5\ngini = 0.5\nsamples = 2\nvalue = [1, 1]\nclass = <=50K", fillcolor="#ffffff"] ;
404 -> 406 ;
407 [label="gini = 0.0\nsamples = 1\nvalue = [0, 1]\nclass = >50K", fillcolor="#399de5"] ;
406 -> 407 ;
408 [label="gini = 0.0\nsamples = 1\nvalue = [1, 0]\nclass = <=50K", fillcolor="#e58139"] ;
406 -> 408 ;
409 [label="fnlwgt <= 110322.0\ngini = 0.305\nsamples = 16\nvalue = [13, 3]\nclass = <=50K", fillcolor="#eb9e67"] ;
383 -> 409 ;
410 [label="gini = 0.0\nsamples = 1\nvalue = [0, 1]\nclass = >50K", fillcolor="#399de5"] ;
409 -> 410 ;
411 [label="fnlwgt <= 204011.0\ngini = 0.231\nsamples = 15\nvalue = [13, 2]\nclass = <=50K", fillcolor="#e99457"] ;
409 -> 411 ;
412 [label="gini = 0.0\nsamples = 10\nvalue = [10, 0]\nclass = <=50K", fillcolor="#e58139"] ;
411 -> 412 ;
413 [label="work_Private <= 0.5\ngini = 0.48\nsamples = 5\nvalue = [3, 2]\nclass = <=50K", fillcolor="#f6d5bd"] ;
411 -> 413 ;
414 [label="gini = 0.0\nsamples = 3\nvalue = [3, 0]\nclass = <=50K", fillcolor="#e58139"] ;
413 -> 414 ;
415 [label="gini = 0.0\nsamples = 2\nvalue = [0, 2]\nclass = >50K", fillcolor="#399de5"] ;
413 -> 415 ;
416 [label="gender <= 0.5\ngini = 0.204\nsamples = 104\nvalue = [92, 12]\nclass = <=50K", fillcolor="#e89153"] ;
382 -> 416 ;
417 [label="age <= 74.5\ngini = 0.101\nsamples = 56\nvalue = [53, 3]\nclass = <=50K", fillcolor="#e68844"] ;
416 -> 417 ;
418 [label="marital_status_Divorced <= 0.5\ngini = 0.073\nsamples = 53\nvalue = [51, 2]\nclass = <=50K", fillcolor="#e68641"] ;
417 -> 418 ;
419 [label="gini = 0.0\nsamples = 28\nvalue = [28, 0]\nclass = <=50K", fillcolor="#e58139"] ;
418 -> 419 ;
420 [label="fnlwgt <= 197691.0\ngini = 0.147\nsamples = 25\nvalue = [23, 2]\nclass = <=50K", fillcolor="#e78c4a"] ;
418 -> 420 ;
421 [label="fnlwgt <= 194576.5\ngini = 0.245\nsamples = 14\nvalue = [12, 2]\nclass = <=50K", fillcolor="#e9965a"] ;
420 -> 421 ;
422 [label="age <= 59.0\ngini = 0.142\nsamples = 13\nvalue = [12, 1]\nclass = <=50K", fillcolor="#e78c49"] ;
421 -> 422 ;
423 [label="gini = 0.0\nsamples = 9\nvalue = [9, 0]\nclass = <=50K", fillcolor="#e58139"] ;
422 -> 423 ;
424 [label="age <= 61.5\ngini = 0.375\nsamples = 4\nvalue = [3, 1]\nclass = <=50K", fillcolor="#eeab7b"] ;
422 -> 424 ;
425 [label="gini = 0.0\nsamples = 1\nvalue = [0, 1]\nclass = >50K", fillcolor="#399de5"] ;
424 -> 425 ;
426 [label="gini = 0.0\nsamples = 3\nvalue = [3, 0]\nclass = <=50K", fillcolor="#e58139"] ;
424 -> 426 ;
427 [label="gini = 0.0\nsamples = 1\nvalue = [0, 1]\nclass = >50K", fillcolor="#399de5"] ;
421 -> 427 ;
428 [label="gini = 0.0\nsamples = 11\nvalue = [11, 0]\nclass = <=50K", fillcolor="#e58139"] ;
420 -> 428 ;
429 [label="age <= 75.5\ngini = 0.444\nsamples = 3\nvalue = [2, 1]\nclass = <=50K", fillcolor="#f2c09c"] ;
417 -> 429 ;
430 [label="gini = 0.0\nsamples = 1\nvalue = [0, 1]\nclass = >50K", fillcolor="#399de5"] ;
429 -> 430 ;
431 [label="gini = 0.0\nsamples = 2\nvalue = [2, 0]\nclass = <=50K", fillcolor="#e58139"] ;
429 -> 431 ;
432 [label="fnlwgt <= 215560.5\ngini = 0.305\nsamples = 48\nvalue = [39, 9]\nclass = <=50K", fillcolor="#eb9e67"] ;
416 -> 432 ;
433 [label="work_Private <= 0.5\ngini = 0.393\nsamples = 26\nvalue = [19, 7]\nclass = <=50K", fillcolor="#efaf82"] ;
432 -> 433 ;
434 [label="job_Protective-serv <= 0.5\ngini = 0.153\nsamples = 12\nvalue = [11, 1]\nclass = <=50K", fillcolor="#e78c4b"] ;
433 -> 434 ;
435 [label="gini = 0.0\nsamples = 11\nvalue = [11, 0]\nclass = <=50K", fillcolor="#e58139"] ;
434 -> 435 ;
436 [label="gini = 0.0\nsamples = 1\nvalue = [0, 1]\nclass = >50K", fillcolor="#399de5"] ;
434 -> 436 ;
437 [label="fnlwgt <= 164876.5\ngini = 0.49\nsamples = 14\nvalue = [8, 6]\nclass = <=50K", fillcolor="#f8e0ce"] ;
433 -> 437 ;
438 [label="fnlwgt <= 51459.5\ngini = 0.408\nsamples = 7\nvalue = [2, 5]\nclass = >50K", fillcolor="#88c4ef"] ;
437 -> 438 ;
439 [label="gini = 0.0\nsamples = 1\nvalue = [1, 0]\nclass = <=50K", fillcolor="#e58139"] ;
438 -> 439 ;
440 [label="marital_status_Married-spouse-absent <= 0.5\ngini = 0.278\nsamples = 6\nvalue = [1, 5]\nclass = >50K", fillcolor="#61b1ea"] ;
438 -> 440 ;
441 [label="gini = 0.0\nsamples = 5\nvalue = [0, 5]\nclass = >50K", fillcolor="#399de5"] ;
440 -> 441 ;
442 [label="gini = 0.0\nsamples = 1\nvalue = [1, 0]\nclass = <=50K", fillcolor="#e58139"] ;
440 -> 442 ;
443 [label="fnlwgt <= 196484.5\ngini = 0.245\nsamples = 7\nvalue = [6, 1]\nclass = <=50K", fillcolor="#e9965a"] ;
437 -> 443 ;
444 [label="gini = 0.0\nsamples = 5\nvalue = [5, 0]\nclass = <=50K", fillcolor="#e58139"] ;
443 -> 444 ;
445 [label="fnlwgt <= 204623.5\ngini = 0.5\nsamples = 2\nvalue = [1, 1]\nclass = <=50K", fillcolor="#ffffff"] ;
443 -> 445 ;
446 [label="gini = 0.0\nsamples = 1\nvalue = [0, 1]\nclass = >50K", fillcolor="#399de5"] ;
445 -> 446 ;
447 [label="gini = 0.0\nsamples = 1\nvalue = [1, 0]\nclass = <=50K", fillcolor="#e58139"] ;
445 -> 447 ;
448 [label="hours-per-week <= 14.0\ngini = 0.165\nsamples = 22\nvalue = [20, 2]\nclass = <=50K", fillcolor="#e88e4d"] ;
432 -> 448 ;
449 [label="marital_status_Never-married <= 0.5\ngini = 0.444\nsamples = 3\nvalue = [1, 2]\nclass = >50K", fillcolor="#9ccef2"] ;
448 -> 449 ;
450 [label="gini = 0.0\nsamples = 2\nvalue = [0, 2]\nclass = >50K", fillcolor="#399de5"] ;
449 -> 450 ;
451 [label="gini = 0.0\nsamples = 1\nvalue = [1, 0]\nclass = <=50K", fillcolor="#e58139"] ;
449 -> 451 ;
452 [label="gini = 0.0\nsamples = 19\nvalue = [19, 0]\nclass = <=50K", fillcolor="#e58139"] ;
448 -> 452 ;
453 [label="work_Federal-gov <= 0.5\ngini = 0.016\nsamples = 128\nvalue = [127, 1]\nclass = <=50K", fillcolor="#e5823b"] ;
381 -> 453 ;
454 [label="gini = 0.0\nsamples = 113\nvalue = [113, 0]\nclass = <=50K", fillcolor="#e58139"] ;
453 -> 454 ;
455 [label="age <= 40.0\ngini = 0.124\nsamples = 15\nvalue = [14, 1]\nclass = <=50K", fillcolor="#e78a47"] ;
453 -> 455 ;
456 [label="age <= 37.5\ngini = 0.375\nsamples = 4\nvalue = [3, 1]\nclass = <=50K", fillcolor="#eeab7b"] ;
455 -> 456 ;
457 [label="gini = 0.0\nsamples = 2\nvalue = [2, 0]\nclass = <=50K", fillcolor="#e58139"] ;
456 -> 457 ;
458 [label="fnlwgt <= 135925.5\ngini = 0.5\nsamples = 2\nvalue = [1, 1]\nclass = <=50K", fillcolor="#ffffff"] ;
456 -> 458 ;
459 [label="gini = 0.0\nsamples = 1\nvalue = [1, 0]\nclass = <=50K", fillcolor="#e58139"] ;
458 -> 459 ;
460 [label="gini = 0.0\nsamples = 1\nvalue = [0, 1]\nclass = >50K", fillcolor="#399de5"] ;
458 -> 460 ;
461 [label="gini = 0.0\nsamples = 11\nvalue = [11, 0]\nclass = <=50K", fillcolor="#e58139"] ;
455 -> 461 ;
462 [label="fnlwgt <= 109262.0\ngini = 0.5\nsamples = 4\nvalue = [2, 2]\nclass = <=50K", fillcolor="#ffffff"] ;
380 -> 462 ;
463 [label="gini = 0.0\nsamples = 1\nvalue = [0, 1]\nclass = >50K", fillcolor="#399de5"] ;
462 -> 463 ;
464 [label="gender <= 0.5\ngini = 0.444\nsamples = 3\nvalue = [2, 1]\nclass = <=50K", fillcolor="#f2c09c"] ;
462 -> 464 ;
465 [label="gini = 0.0\nsamples = 1\nvalue = [0, 1]\nclass = >50K", fillcolor="#399de5"] ;
464 -> 465 ;
466 [label="gini = 0.0\nsamples = 2\nvalue = [2, 0]\nclass = <=50K", fillcolor="#e58139"] ;
464 -> 466 ;
467 [label="work_Federal-gov <= 0.5\ngini = 0.5\nsamples = 2\nvalue = [1, 1]\nclass = <=50K", fillcolor="#ffffff"] ;
141 -> 467 ;
468 [label="gini = 0.0\nsamples = 1\nvalue = [1, 0]\nclass = <=50K", fillcolor="#e58139"] ;
467 -> 468 ;
469 [label="gini = 0.0\nsamples = 1\nvalue = [0, 1]\nclass = >50K", fillcolor="#399de5"] ;
467 -> 469 ;
470 [label="work_State-gov <= 0.5\ngini = 0.003\nsamples = 795\nvalue = [794, 1]\nclass = <=50K", fillcolor="#e58139"] ;
140 -> 470 ;
471 [label="gini = 0.0\nsamples = 762\nvalue = [762, 0]\nclass = <=50K", fillcolor="#e58139"] ;
470 -> 471 ;
472 [label="education_11th <= 0.5\ngini = 0.059\nsamples = 33\nvalue = [32, 1]\nclass = <=50K", fillcolor="#e6853f"] ;
470 -> 472 ;
473 [label="gini = 0.0\nsamples = 32\nvalue = [32, 0]\nclass = <=50K", fillcolor="#e58139"] ;
472 -> 473 ;
474 [label="gini = 0.0\nsamples = 1\nvalue = [0, 1]\nclass = >50K", fillcolor="#399de5"] ;
472 -> 474 ;
475 [label="capital-gain <= 4826.0\ngini = 0.287\nsamples = 23\nvalue = [19, 4]\nclass = <=50K", fillcolor="#ea9c63"] ;
139 -> 475 ;
476 [label="gini = 0.0\nsamples = 4\nvalue = [0, 4]\nclass = >50K", fillcolor="#399de5"] ;
475 -> 476 ;
477 [label="gini = 0.0\nsamples = 19\nvalue = [19, 0]\nclass = <=50K", fillcolor="#e58139"] ;
475 -> 477 ;
478 [label="fnlwgt <= 23431.5\ngini = 0.134\nsamples = 305\nvalue = [283, 22]\nclass = <=50K", fillcolor="#e78b48"] ;
138 -> 478 ;
479 [label="relationship_Not-in-family <= 0.5\ngini = 0.48\nsamples = 5\nvalue = [3, 2]\nclass = <=50K", fillcolor="#f6d5bd"] ;
478 -> 479 ;
480 [label="gini = 0.0\nsamples = 3\nvalue = [3, 0]\nclass = <=50K", fillcolor="#e58139"] ;
479 -> 480 ;
481 [label="gini = 0.0\nsamples = 2\nvalue = [0, 2]\nclass = >50K", fillcolor="#399de5"] ;
479 -> 481 ;
482 [label="fnlwgt <= 160660.5\ngini = 0.124\nsamples = 300\nvalue = [280, 20]\nclass = <=50K", fillcolor="#e78a47"] ;
478 -> 482 ;
483 [label="fnlwgt <= 160524.5\ngini = 0.199\nsamples = 116\nvalue = [103, 13]\nclass = <=50K", fillcolor="#e89152"] ;
482 -> 483 ;
484 [label="education_11th <= 0.5\ngini = 0.187\nsamples = 115\nvalue = [103, 12]\nclass = <=50K", fillcolor="#e89050"] ;
483 -> 484 ;
485 [label="fnlwgt <= 137532.0\ngini = 0.174\nsamples = 114\nvalue = [103, 11]\nclass = <=50K", fillcolor="#e88e4e"] ;
484 -> 485 ;
486 [label="capital-loss <= 1486.0\ngini = 0.108\nsamples = 87\nvalue = [82, 5]\nclass = <=50K", fillcolor="#e78945"] ;
485 -> 486 ;
487 [label="age <= 37.5\ngini = 0.09\nsamples = 85\nvalue = [81, 4]\nclass = <=50K", fillcolor="#e68743"] ;
486 -> 487 ;
488 [label="relationship_Not-in-family <= 0.5\ngini = 0.278\nsamples = 18\nvalue = [15, 3]\nclass = <=50K", fillcolor="#ea9a61"] ;
487 -> 488 ;
489 [label="gini = 0.0\nsamples = 12\nvalue = [12, 0]\nclass = <=50K", fillcolor="#e58139"] ;
488 -> 489 ;
490 [label="educational-num <= 9.5\ngini = 0.5\nsamples = 6\nvalue = [3, 3]\nclass = <=50K", fillcolor="#ffffff"] ;
488 -> 490 ;
491 [label="gini = 0.0\nsamples = 2\nvalue = [2, 0]\nclass = <=50K", fillcolor="#e58139"] ;
490 -> 491 ;
492 [label="work_Private <= 0.5\ngini = 0.375\nsamples = 4\nvalue = [1, 3]\nclass = >50K", fillcolor="#7bbeee"] ;
490 -> 492 ;
493 [label="gini = 0.0\nsamples = 1\nvalue = [1, 0]\nclass = <=50K", fillcolor="#e58139"] ;
492 -> 493 ;
494 [label="gini = 0.0\nsamples = 3\nvalue = [0, 3]\nclass = >50K", fillcolor="#399de5"] ;
492 -> 494 ;
495 [label="education_Assoc-voc <= 0.5\ngini = 0.029\nsamples = 67\nvalue = [66, 1]\nclass = <=50K", fillcolor="#e5833c"] ;
487 -> 495 ;
496 [label="gini = 0.0\nsamples = 62\nvalue = [62, 0]\nclass = <=50K", fillcolor="#e58139"] ;
495 -> 496 ;
497 [label="gender <= 0.5\ngini = 0.32\nsamples = 5\nvalue = [4, 1]\nclass = <=50K", fillcolor="#eca06a"] ;
495 -> 497 ;
498 [label="gini = 0.0\nsamples = 4\nvalue = [4, 0]\nclass = <=50K", fillcolor="#e58139"] ;
497 -> 498 ;
499 [label="gini = 0.0\nsamples = 1\nvalue = [0, 1]\nclass = >50K", fillcolor="#399de5"] ;
497 -> 499 ;
500 [label="educational-num <= 10.5\ngini = 0.5\nsamples = 2\nvalue = [1, 1]\nclass = <=50K", fillcolor="#ffffff"] ;
486 -> 500 ;
501 [label="gini = 0.0\nsamples = 1\nvalue = [0, 1]\nclass = >50K", fillcolor="#399de5"] ;
500 -> 501 ;
502 [label="gini = 0.0\nsamples = 1\nvalue = [1, 0]\nclass = <=50K", fillcolor="#e58139"] ;
500 -> 502 ;
503 [label="fnlwgt <= 140231.0\ngini = 0.346\nsamples = 27\nvalue = [21, 6]\nclass = <=50K", fillcolor="#eca572"] ;
485 -> 503 ;
504 [label="work_Self-emp-not-inc <= 0.5\ngini = 0.32\nsamples = 5\nvalue = [1, 4]\nclass = >50K", fillcolor="#6ab6ec"] ;
503 -> 504 ;
505 [label="gini = 0.0\nsamples = 4\nvalue = [0, 4]\nclass = >50K", fillcolor="#399de5"] ;
504 -> 505 ;
506 [label="gini = 0.0\nsamples = 1\nvalue = [1, 0]\nclass = <=50K", fillcolor="#e58139"] ;
504 -> 506 ;
507 [label="work_State-gov <= 0.5\ngini = 0.165\nsamples = 22\nvalue = [20, 2]\nclass = <=50K", fillcolor="#e88e4d"] ;
503 -> 507 ;
508 [label="education_Assoc-voc <= 0.5\ngini = 0.091\nsamples = 21\nvalue = [20, 1]\nclass = <=50K", fillcolor="#e68743"] ;
507 -> 508 ;
509 [label="gini = 0.0\nsamples = 19\nvalue = [19, 0]\nclass = <=50K", fillcolor="#e58139"] ;
508 -> 509 ;
510 [label="marital_status_Divorced <= 0.5\ngini = 0.5\nsamples = 2\nvalue = [1, 1]\nclass = <=50K", fillcolor="#ffffff"] ;
508 -> 510 ;
511 [label="gini = 0.0\nsamples = 1\nvalue = [0, 1]\nclass = >50K", fillcolor="#399de5"] ;
510 -> 511 ;
512 [label="gini = 0.0\nsamples = 1\nvalue = [1, 0]\nclass = <=50K", fillcolor="#e58139"] ;
510 -> 512 ;
513 [label="gini = 0.0\nsamples = 1\nvalue = [0, 1]\nclass = >50K", fillcolor="#399de5"] ;
507 -> 513 ;
514 [label="gini = 0.0\nsamples = 1\nvalue = [0, 1]\nclass = >50K", fillcolor="#399de5"] ;
484 -> 514 ;
515 [label="gini = 0.0\nsamples = 1\nvalue = [0, 1]\nclass = >50K", fillcolor="#399de5"] ;
483 -> 515 ;
516 [label="educational-num <= 11.5\ngini = 0.073\nsamples = 184\nvalue = [177, 7]\nclass = <=50K", fillcolor="#e68641"] ;
482 -> 516 ;
517 [label="hours-per-week <= 12.5\ngini = 0.057\nsamples = 171\nvalue = [166, 5]\nclass = <=50K", fillcolor="#e6853f"] ;
516 -> 517 ;
518 [label="hours-per-week <= 9.0\ngini = 0.375\nsamples = 4\nvalue = [3, 1]\nclass = <=50K", fillcolor="#eeab7b"] ;
517 -> 518 ;
519 [label="gini = 0.0\nsamples = 3\nvalue = [3, 0]\nclass = <=50K", fillcolor="#e58139"] ;
518 -> 519 ;
520 [label="gini = 0.0\nsamples = 1\nvalue = [0, 1]\nclass = >50K", fillcolor="#399de5"] ;
518 -> 520 ;
521 [label="age <= 47.5\ngini = 0.047\nsamples = 167\nvalue = [163, 4]\nclass = <=50K", fillcolor="#e6843e"] ;
517 -> 521 ;
522 [label="fnlwgt <= 255920.0\ngini = 0.081\nsamples = 94\nvalue = [90, 4]\nclass = <=50K", fillcolor="#e68742"] ;
521 -> 522 ;
523 [label="age <= 46.5\ngini = 0.034\nsamples = 58\nvalue = [57, 1]\nclass = <=50K", fillcolor="#e5833c"] ;
522 -> 523 ;
524 [label="gini = 0.0\nsamples = 52\nvalue = [52, 0]\nclass = <=50K", fillcolor="#e58139"] ;
523 -> 524 ;
525 [label="Black <= 0.5\ngini = 0.278\nsamples = 6\nvalue = [5, 1]\nclass = <=50K", fillcolor="#ea9a61"] ;
523 -> 525 ;
526 [label="gini = 0.0\nsamples = 5\nvalue = [5, 0]\nclass = <=50K", fillcolor="#e58139"] ;
525 -> 526 ;
527 [label="gini = 0.0\nsamples = 1\nvalue = [0, 1]\nclass = >50K", fillcolor="#399de5"] ;
525 -> 527 ;
528 [label="fnlwgt <= 257491.5\ngini = 0.153\nsamples = 36\nvalue = [33, 3]\nclass = <=50K", fillcolor="#e78c4b"] ;
522 -> 528 ;
529 [label="gini = 0.0\nsamples = 1\nvalue = [0, 1]\nclass = >50K", fillcolor="#399de5"] ;
528 -> 529 ;
530 [label="fnlwgt <= 264265.0\ngini = 0.108\nsamples = 35\nvalue = [33, 2]\nclass = <=50K", fillcolor="#e78945"] ;
528 -> 530 ;
531 [label="age <= 34.5\ngini = 0.444\nsamples = 3\nvalue = [2, 1]\nclass = <=50K", fillcolor="#f2c09c"] ;
530 -> 531 ;
532 [label="gini = 0.0\nsamples = 2\nvalue = [2, 0]\nclass = <=50K", fillcolor="#e58139"] ;
531 -> 532 ;
533 [label="gini = 0.0\nsamples = 1\nvalue = [0, 1]\nclass = >50K", fillcolor="#399de5"] ;
531 -> 533 ;
534 [label="fnlwgt <= 343820.0\ngini = 0.061\nsamples = 32\nvalue = [31, 1]\nclass = <=50K", fillcolor="#e6853f"] ;
530 -> 534 ;
535 [label="gini = 0.0\nsamples = 20\nvalue = [20, 0]\nclass = <=50K", fillcolor="#e58139"] ;
534 -> 535 ;
536 [label="fnlwgt <= 344967.5\ngini = 0.153\nsamples = 12\nvalue = [11, 1]\nclass = <=50K", fillcolor="#e78c4b"] ;
534 -> 536 ;
537 [label="gini = 0.0\nsamples = 1\nvalue = [0, 1]\nclass = >50K", fillcolor="#399de5"] ;
536 -> 537 ;
538 [label="gini = 0.0\nsamples = 11\nvalue = [11, 0]\nclass = <=50K", fillcolor="#e58139"] ;
536 -> 538 ;
539 [label="gini = 0.0\nsamples = 73\nvalue = [73, 0]\nclass = <=50K", fillcolor="#e58139"] ;
521 -> 539 ;
540 [label="marital_status_Widowed <= 0.5\ngini = 0.26\nsamples = 13\nvalue = [11, 2]\nclass = <=50K", fillcolor="#ea985d"] ;
516 -> 540 ;
541 [label="age <= 41.0\ngini = 0.153\nsamples = 12\nvalue = [11, 1]\nclass = <=50K", fillcolor="#e78c4b"] ;
540 -> 541 ;
542 [label="age <= 39.0\ngini = 0.375\nsamples = 4\nvalue = [3, 1]\nclass = <=50K", fillcolor="#eeab7b"] ;
541 -> 542 ;
543 [label="gini = 0.0\nsamples = 3\nvalue = [3, 0]\nclass = <=50K", fillcolor="#e58139"] ;
542 -> 543 ;
544 [label="gini = 0.0\nsamples = 1\nvalue = [0, 1]\nclass = >50K", fillcolor="#399de5"] ;
542 -> 544 ;
545 [label="gini = 0.0\nsamples = 8\nvalue = [8, 0]\nclass = <=50K", fillcolor="#e58139"] ;
541 -> 545 ;
546 [label="gini = 0.0\nsamples = 1\nvalue = [0, 1]\nclass = >50K", fillcolor="#399de5"] ;
540 -> 546 ;
547 [label="work_Federal-gov <= 0.5\ngini = 0.18\nsamples = 210\nvalue = [189, 21]\nclass = <=50K", fillcolor="#e88f4f"] ;
137 -> 547 ;
548 [label="gender <= 0.5\ngini = 0.147\nsamples = 201\nvalue = [185, 16]\nclass = <=50K", fillcolor="#e78c4a"] ;
547 -> 548 ;
549 [label="marital_status_Married-spouse-absent <= 0.5\ngini = 0.079\nsamples = 146\nvalue = [140, 6]\nclass = <=50K", fillcolor="#e68641"] ;
548 -> 549 ;
550 [label="age <= 42.5\ngini = 0.067\nsamples = 143\nvalue = [138, 5]\nclass = <=50K", fillcolor="#e68640"] ;
549 -> 550 ;
551 [label="gini = 0.0\nsamples = 63\nvalue = [63, 0]\nclass = <=50K", fillcolor="#e58139"] ;
550 -> 551 ;
552 [label="marital_status_Never-married <= 0.5\ngini = 0.117\nsamples = 80\nvalue = [75, 5]\nclass = <=50K", fillcolor="#e78946"] ;
550 -> 552 ;
553 [label="fnlwgt <= 54183.0\ngini = 0.06\nsamples = 65\nvalue = [63, 2]\nclass = <=50K", fillcolor="#e6853f"] ;
552 -> 553 ;
554 [label="fnlwgt <= 53416.0\ngini = 0.32\nsamples = 5\nvalue = [4, 1]\nclass = <=50K", fillcolor="#eca06a"] ;
553 -> 554 ;
555 [label="gini = 0.0\nsamples = 4\nvalue = [4, 0]\nclass = <=50K", fillcolor="#e58139"] ;
554 -> 555 ;
556 [label="gini = 0.0\nsamples = 1\nvalue = [0, 1]\nclass = >50K", fillcolor="#399de5"] ;
554 -> 556 ;
557 [label="education_HS-grad <= 0.5\ngini = 0.033\nsamples = 60\nvalue = [59, 1]\nclass = <=50K", fillcolor="#e5833c"] ;
553 -> 557 ;
558 [label="gini = 0.0\nsamples = 43\nvalue = [43, 0]\nclass = <=50K", fillcolor="#e58139"] ;
557 -> 558 ;
559 [label="relationship_Not-in-family <= 0.5\ngini = 0.111\nsamples = 17\nvalue = [16, 1]\nclass = <=50K", fillcolor="#e78945"] ;
557 -> 559 ;
560 [label="White <= 0.5\ngini = 0.219\nsamples = 8\nvalue = [7, 1]\nclass = <=50K", fillcolor="#e99355"] ;
559 -> 560 ;
561 [label="gini = 0.0\nsamples = 5\nvalue = [5, 0]\nclass = <=50K", fillcolor="#e58139"] ;
560 -> 561 ;
562 [label="marital_status_Divorced <= 0.5\ngini = 0.444\nsamples = 3\nvalue = [2, 1]\nclass = <=50K", fillcolor="#f2c09c"] ;
560 -> 562 ;
563 [label="gini = 0.0\nsamples = 2\nvalue = [2, 0]\nclass = <=50K", fillcolor="#e58139"] ;
562 -> 563 ;
564 [label="gini = 0.0\nsamples = 1\nvalue = [0, 1]\nclass = >50K", fillcolor="#399de5"] ;
562 -> 564 ;
565 [label="gini = 0.0\nsamples = 9\nvalue = [9, 0]\nclass = <=50K", fillcolor="#e58139"] ;
559 -> 565 ;
566 [label="fnlwgt <= 307901.0\ngini = 0.32\nsamples = 15\nvalue = [12, 3]\nclass = <=50K", fillcolor="#eca06a"] ;
552 -> 566 ;
567 [label="age <= 57.5\ngini = 0.245\nsamples = 14\nvalue = [12, 2]\nclass = <=50K", fillcolor="#e9965a"] ;
566 -> 567 ;
568 [label="gini = 0.0\nsamples = 9\nvalue = [9, 0]\nclass = <=50K", fillcolor="#e58139"] ;
567 -> 568 ;
569 [label="work_Private <= 0.5\ngini = 0.48\nsamples = 5\nvalue = [3, 2]\nclass = <=50K", fillcolor="#f6d5bd"] ;
567 -> 569 ;
570 [label="gini = 0.0\nsamples = 2\nvalue = [2, 0]\nclass = <=50K", fillcolor="#e58139"] ;
569 -> 570 ;
571 [label="hours-per-week <= 26.5\ngini = 0.444\nsamples = 3\nvalue = [1, 2]\nclass = >50K", fillcolor="#9ccef2"] ;
569 -> 571 ;
572 [label="gini = 0.0\nsamples = 1\nvalue = [1, 0]\nclass = <=50K", fillcolor="#e58139"] ;
571 -> 572 ;
573 [label="gini = 0.0\nsamples = 2\nvalue = [0, 2]\nclass = >50K", fillcolor="#399de5"] ;
571 -> 573 ;
574 [label="gini = 0.0\nsamples = 1\nvalue = [0, 1]\nclass = >50K", fillcolor="#399de5"] ;
566 -> 574 ;
575 [label="education_HS-grad <= 0.5\ngini = 0.444\nsamples = 3\nvalue = [2, 1]\nclass = <=50K", fillcolor="#f2c09c"] ;
549 -> 575 ;
576 [label="gini = 0.0\nsamples = 2\nvalue = [2, 0]\nclass = <=50K", fillcolor="#e58139"] ;
575 -> 576 ;
577 [label="gini = 0.0\nsamples = 1\nvalue = [0, 1]\nclass = >50K", fillcolor="#399de5"] ;
575 -> 577 ;
578 [label="fnlwgt <= 124275.5\ngini = 0.298\nsamples = 55\nvalue = [45, 10]\nclass = <=50K", fillcolor="#eb9d65"] ;
548 -> 578 ;
579 [label="fnlwgt <= 80382.0\ngini = 0.486\nsamples = 12\nvalue = [7, 5]\nclass = <=50K", fillcolor="#f8dbc6"] ;
578 -> 579 ;
580 [label="gini = 0.0\nsamples = 6\nvalue = [6, 0]\nclass = <=50K", fillcolor="#e58139"] ;
579 -> 580 ;
581 [label="hours-per-week <= 25.0\ngini = 0.278\nsamples = 6\nvalue = [1, 5]\nclass = >50K", fillcolor="#61b1ea"] ;
579 -> 581 ;
582 [label="gini = 0.0\nsamples = 1\nvalue = [1, 0]\nclass = <=50K", fillcolor="#e58139"] ;
581 -> 582 ;
583 [label="gini = 0.0\nsamples = 5\nvalue = [0, 5]\nclass = >50K", fillcolor="#399de5"] ;
581 -> 583 ;
584 [label="capital-loss <= 782.0\ngini = 0.206\nsamples = 43\nvalue = [38, 5]\nclass = <=50K", fillcolor="#e89253"] ;
578 -> 584 ;
585 [label="education_11th <= 0.5\ngini = 0.172\nsamples = 42\nvalue = [38, 4]\nclass = <=50K", fillcolor="#e88e4e"] ;
584 -> 585 ;
586 [label="age <= 47.5\ngini = 0.136\nsamples = 41\nvalue = [38, 3]\nclass = <=50K", fillcolor="#e78b49"] ;
585 -> 586 ;
587 [label="education_Assoc-voc <= 0.5\ngini = 0.064\nsamples = 30\nvalue = [29, 1]\nclass = <=50K", fillcolor="#e68540"] ;
586 -> 587 ;
588 [label="gini = 0.0\nsamples = 25\nvalue = [25, 0]\nclass = <=50K", fillcolor="#e58139"] ;
587 -> 588 ;
589 [label="fnlwgt <= 228177.5\ngini = 0.32\nsamples = 5\nvalue = [4, 1]\nclass = <=50K", fillcolor="#eca06a"] ;
587 -> 589 ;
590 [label="marital_status_Divorced <= 0.5\ngini = 0.5\nsamples = 2\nvalue = [1, 1]\nclass = <=50K", fillcolor="#ffffff"] ;
589 -> 590 ;
591 [label="gini = 0.0\nsamples = 1\nvalue = [1, 0]\nclass = <=50K", fillcolor="#e58139"] ;
590 -> 591 ;
592 [label="gini = 0.0\nsamples = 1\nvalue = [0, 1]\nclass = >50K", fillcolor="#399de5"] ;
590 -> 592 ;
593 [label="gini = 0.0\nsamples = 3\nvalue = [3, 0]\nclass = <=50K", fillcolor="#e58139"] ;
589 -> 593 ;
594 [label="education_Some-college <= 0.5\ngini = 0.298\nsamples = 11\nvalue = [9, 2]\nclass = <=50K", fillcolor="#eb9d65"] ;
586 -> 594 ;
595 [label="gini = 0.0\nsamples = 7\nvalue = [7, 0]\nclass = <=50K", fillcolor="#e58139"] ;
594 -> 595 ;
596 [label="age <= 55.5\ngini = 0.5\nsamples = 4\nvalue = [2, 2]\nclass = <=50K", fillcolor="#ffffff"] ;
594 -> 596 ;
597 [label="gini = 0.0\nsamples = 2\nvalue = [0, 2]\nclass = >50K", fillcolor="#399de5"] ;
596 -> 597 ;
598 [label="gini = 0.0\nsamples = 2\nvalue = [2, 0]\nclass = <=50K", fillcolor="#e58139"] ;
596 -> 598 ;
599 [label="gini = 0.0\nsamples = 1\nvalue = [0, 1]\nclass = >50K", fillcolor="#399de5"] ;
585 -> 599 ;
600 [label="gini = 0.0\nsamples = 1\nvalue = [0, 1]\nclass = >50K", fillcolor="#399de5"] ;
584 -> 600 ;
601 [label="fnlwgt <= 120389.5\ngini = 0.494\nsamples = 9\nvalue = [4, 5]\nclass = >50K", fillcolor="#d7ebfa"] ;
547 -> 601 ;
602 [label="gini = 0.0\nsamples = 4\nvalue = [4, 0]\nclass = <=50K", fillcolor="#e58139"] ;
601 -> 602 ;
603 [label="gini = 0.0\nsamples = 5\nvalue = [0, 5]\nclass = >50K", fillcolor="#399de5"] ;
601 -> 603 ;
604 [label="age <= 38.5\ngini = 0.116\nsamples = 2152\nvalue = [2019, 133]\nclass = <=50K", fillcolor="#e78946"] ;
4 -> 604 ;
605 [label="age <= 25.5\ngini = 0.068\nsamples = 1360\nvalue = [1312, 48]\nclass = <=50K", fillcolor="#e68640"] ;
604 -> 605 ;
606 [label="education_7th-8th <= 0.5\ngini = 0.016\nsamples = 484\nvalue = [480, 4]\nclass = <=50K", fillcolor="#e5823b"] ;
605 -> 606 ;
607 [label="marital_status_Never-married <= 0.5\ngini = 0.012\nsamples = 477\nvalue = [474, 3]\nclass = <=50K", fillcolor="#e5823a"] ;
606 -> 607 ;
608 [label="job_Exec-managerial <= 0.5\ngini = 0.097\nsamples = 39\nvalue = [37, 2]\nclass = <=50K", fillcolor="#e68844"] ;
607 -> 608 ;
609 [label="job_Other-service <= 0.5\ngini = 0.057\nsamples = 34\nvalue = [33, 1]\nclass = <=50K", fillcolor="#e6853f"] ;
608 -> 609 ;
610 [label="gini = 0.0\nsamples = 29\nvalue = [29, 0]\nclass = <=50K", fillcolor="#e58139"] ;
609 -> 610 ;
611 [label="marital_status_Separated <= 0.5\ngini = 0.32\nsamples = 5\nvalue = [4, 1]\nclass = <=50K", fillcolor="#eca06a"] ;
609 -> 611 ;
612 [label="gini = 0.0\nsamples = 3\nvalue = [3, 0]\nclass = <=50K", fillcolor="#e58139"] ;
611 -> 612 ;
613 [label="hours-per-week <= 52.5\ngini = 0.5\nsamples = 2\nvalue = [1, 1]\nclass = <=50K", fillcolor="#ffffff"] ;
611 -> 613 ;
614 [label="gini = 0.0\nsamples = 1\nvalue = [0, 1]\nclass = >50K", fillcolor="#399de5"] ;
613 -> 614 ;
615 [label="gini = 0.0\nsamples = 1\nvalue = [1, 0]\nclass = <=50K", fillcolor="#e58139"] ;
613 -> 615 ;
616 [label="fnlwgt <= 151792.0\ngini = 0.32\nsamples = 5\nvalue = [4, 1]\nclass = <=50K", fillcolor="#eca06a"] ;
608 -> 616 ;
617 [label="gini = 0.0\nsamples = 2\nvalue = [2, 0]\nclass = <=50K", fillcolor="#e58139"] ;
616 -> 617 ;
618 [label="fnlwgt <= 248898.0\ngini = 0.444\nsamples = 3\nvalue = [2, 1]\nclass = <=50K", fillcolor="#f2c09c"] ;
616 -> 618 ;
619 [label="gini = 0.0\nsamples = 1\nvalue = [0, 1]\nclass = >50K", fillcolor="#399de5"] ;
618 -> 619 ;
620 [label="gini = 0.0\nsamples = 2\nvalue = [2, 0]\nclass = <=50K", fillcolor="#e58139"] ;
618 -> 620 ;
621 [label="job_Prof-specialty <= 0.5\ngini = 0.005\nsamples = 438\nvalue = [437, 1]\nclass = <=50K", fillcolor="#e58139"] ;
607 -> 621 ;
622 [label="gini = 0.0\nsamples = 424\nvalue = [424, 0]\nclass = <=50K", fillcolor="#e58139"] ;
621 -> 622 ;
623 [label="age <= 24.5\ngini = 0.133\nsamples = 14\nvalue = [13, 1]\nclass = <=50K", fillcolor="#e78b48"] ;
621 -> 623 ;
624 [label="gini = 0.0\nsamples = 12\nvalue = [12, 0]\nclass = <=50K", fillcolor="#e58139"] ;
623 -> 624 ;
625 [label="hours-per-week <= 52.5\ngini = 0.5\nsamples = 2\nvalue = [1, 1]\nclass = <=50K", fillcolor="#ffffff"] ;
623 -> 625 ;
626 [label="gini = 0.0\nsamples = 1\nvalue = [0, 1]\nclass = >50K", fillcolor="#399de5"] ;
625 -> 626 ;
627 [label="gini = 0.0\nsamples = 1\nvalue = [1, 0]\nclass = <=50K", fillcolor="#e58139"] ;
625 -> 627 ;
628 [label="hours-per-week <= 56.0\ngini = 0.245\nsamples = 7\nvalue = [6, 1]\nclass = <=50K", fillcolor="#e9965a"] ;
606 -> 628 ;
629 [label="gini = 0.0\nsamples = 5\nvalue = [5, 0]\nclass = <=50K", fillcolor="#e58139"] ;
628 -> 629 ;
630 [label="age <= 19.5\ngini = 0.5\nsamples = 2\nvalue = [1, 1]\nclass = <=50K", fillcolor="#ffffff"] ;
628 -> 630 ;
631 [label="gini = 0.0\nsamples = 1\nvalue = [0, 1]\nclass = >50K", fillcolor="#399de5"] ;
630 -> 631 ;
632 [label="gini = 0.0\nsamples = 1\nvalue = [1, 0]\nclass = <=50K", fillcolor="#e58139"] ;
630 -> 632 ;
633 [label="job_Protective-serv <= 0.5\ngini = 0.095\nsamples = 876\nvalue = [832, 44]\nclass = <=50K", fillcolor="#e68843"] ;
605 -> 633 ;
634 [label="Asian-Pac-Islander <= 0.5\ngini = 0.088\nsamples = 850\nvalue = [811, 39]\nclass = <=50K", fillcolor="#e68743"] ;
633 -> 634 ;
635 [label="marital_status_Married-AF-spouse <= 0.5\ngini = 0.079\nsamples = 825\nvalue = [791, 34]\nclass = <=50K", fillcolor="#e68642"] ;
634 -> 635 ;
636 [label="job_Exec-managerial <= 0.5\ngini = 0.077\nsamples = 823\nvalue = [790, 33]\nclass = <=50K", fillcolor="#e68641"] ;
635 -> 636 ;
637 [label="capital-gain <= 4718.5\ngini = 0.06\nsamples = 707\nvalue = [685, 22]\nclass = <=50K", fillcolor="#e6853f"] ;
636 -> 637 ;
638 [label="hours-per-week <= 85.5\ngini = 0.056\nsamples = 697\nvalue = [677, 20]\nclass = <=50K", fillcolor="#e6853f"] ;
637 -> 638 ;
639 [label="job_Sales <= 0.5\ngini = 0.051\nsamples = 684\nvalue = [666, 18]\nclass = <=50K", fillcolor="#e6843e"] ;
638 -> 639 ;
640 [label="education_9th <= 0.5\ngini = 0.037\nsamples = 576\nvalue = [565, 11]\nclass = <=50K", fillcolor="#e6833d"] ;
639 -> 640 ;
641 [label="job_Prof-specialty <= 0.5\ngini = 0.035\nsamples = 569\nvalue = [559, 10]\nclass = <=50K", fillcolor="#e5833d"] ;
640 -> 641 ;
642 [label="education_Assoc-acdm <= 0.5\ngini = 0.029\nsamples = 543\nvalue = [535, 8]\nclass = <=50K", fillcolor="#e5833c"] ;
641 -> 642 ;
643 [label="job_Transport-moving <= 0.5\ngini = 0.023\nsamples = 517\nvalue = [511, 6]\nclass = <=50K", fillcolor="#e5823b"] ;
642 -> 643 ;
644 [label="fnlwgt <= 200987.5\ngini = 0.013\nsamples = 452\nvalue = [449, 3]\nclass = <=50K", fillcolor="#e5823a"] ;
643 -> 644 ;
645 [label="gini = 0.0\nsamples = 275\nvalue = [275, 0]\nclass = <=50K", fillcolor="#e58139"] ;
644 -> 645 ;
646 [label="fnlwgt <= 201280.0\ngini = 0.033\nsamples = 177\nvalue = [174, 3]\nclass = <=50K", fillcolor="#e5833c"] ;
644 -> 646 ;
647 [label="gini = 0.0\nsamples = 1\nvalue = [0, 1]\nclass = >50K", fillcolor="#399de5"] ;
646 -> 647 ;
648 [label="job_Craft-repair <= 0.5\ngini = 0.022\nsamples = 176\nvalue = [174, 2]\nclass = <=50K", fillcolor="#e5823b"] ;
646 -> 648 ;
649 [label="gini = 0.0\nsamples = 129\nvalue = [129, 0]\nclass = <=50K", fillcolor="#e58139"] ;
648 -> 649 ;
650 [label="work_Self-emp-not-inc <= 0.5\ngini = 0.081\nsamples = 47\nvalue = [45, 2]\nclass = <=50K", fillcolor="#e68742"] ;
648 -> 650 ;
651 [label="fnlwgt <= 227155.5\ngini = 0.049\nsamples = 40\nvalue = [39, 1]\nclass = <=50K", fillcolor="#e6843e"] ;
650 -> 651 ;
652 [label="fnlwgt <= 225223.5\ngini = 0.153\nsamples = 12\nvalue = [11, 1]\nclass = <=50K", fillcolor="#e78c4b"] ;
651 -> 652 ;
653 [label="gini = 0.0\nsamples = 11\nvalue = [11, 0]\nclass = <=50K", fillcolor="#e58139"] ;
652 -> 653 ;
654 [label="gini = 0.0\nsamples = 1\nvalue = [0, 1]\nclass = >50K", fillcolor="#399de5"] ;
652 -> 654 ;
655 [label="gini = 0.0\nsamples = 28\nvalue = [28, 0]\nclass = <=50K", fillcolor="#e58139"] ;
651 -> 655 ;
656 [label="age <= 33.5\ngini = 0.245\nsamples = 7\nvalue = [6, 1]\nclass = <=50K", fillcolor="#e9965a"] ;
650 -> 656 ;
657 [label="gini = 0.0\nsamples = 5\nvalue = [5, 0]\nclass = <=50K", fillcolor="#e58139"] ;
656 -> 657 ;
658 [label="hours-per-week <= 47.5\ngini = 0.5\nsamples = 2\nvalue = [1, 1]\nclass = <=50K", fillcolor="#ffffff"] ;
656 -> 658 ;
659 [label="gini = 0.0\nsamples = 1\nvalue = [0, 1]\nclass = >50K", fillcolor="#399de5"] ;
658 -> 659 ;
660 [label="gini = 0.0\nsamples = 1\nvalue = [1, 0]\nclass = <=50K", fillcolor="#e58139"] ;
658 -> 660 ;
661 [label="fnlwgt <= 104427.0\ngini = 0.088\nsamples = 65\nvalue = [62, 3]\nclass = <=50K", fillcolor="#e68743"] ;
643 -> 661 ;
662 [label="hours-per-week <= 47.5\ngini = 0.355\nsamples = 13\nvalue = [10, 3]\nclass = <=50K", fillcolor="#eda774"] ;
661 -> 662 ;
663 [label="age <= 33.0\ngini = 0.444\nsamples = 3\nvalue = [1, 2]\nclass = >50K", fillcolor="#9ccef2"] ;
662 -> 663 ;
664 [label="gini = 0.0\nsamples = 2\nvalue = [0, 2]\nclass = >50K", fillcolor="#399de5"] ;
663 -> 664 ;
665 [label="gini = 0.0\nsamples = 1\nvalue = [1, 0]\nclass = <=50K", fillcolor="#e58139"] ;
663 -> 665 ;
666 [label="age <= 36.5\ngini = 0.18\nsamples = 10\nvalue = [9, 1]\nclass = <=50K", fillcolor="#e88f4f"] ;
662 -> 666 ;
667 [label="gini = 0.0\nsamples = 9\nvalue = [9, 0]\nclass = <=50K", fillcolor="#e58139"] ;
666 -> 667 ;
668 [label="gini = 0.0\nsamples = 1\nvalue = [0, 1]\nclass = >50K", fillcolor="#399de5"] ;
666 -> 668 ;
669 [label="gini = 0.0\nsamples = 52\nvalue = [52, 0]\nclass = <=50K", fillcolor="#e58139"] ;
661 -> 669 ;
670 [label="fnlwgt <= 311974.5\ngini = 0.142\nsamples = 26\nvalue = [24, 2]\nclass = <=50K", fillcolor="#e78c49"] ;
642 -> 670 ;
671 [label="job_Craft-repair <= 0.5\ngini = 0.087\nsamples = 22\nvalue = [21, 1]\nclass = <=50K", fillcolor="#e68742"] ;
670 -> 671 ;
672 [label="gini = 0.0\nsamples = 19\nvalue = [19, 0]\nclass = <=50K", fillcolor="#e58139"] ;
671 -> 672 ;
673 [label="fnlwgt <= 184502.0\ngini = 0.444\nsamples = 3\nvalue = [2, 1]\nclass = <=50K", fillcolor="#f2c09c"] ;
671 -> 673 ;
674 [label="gini = 0.0\nsamples = 2\nvalue = [2, 0]\nclass = <=50K", fillcolor="#e58139"] ;
673 -> 674 ;
675 [label="gini = 0.0\nsamples = 1\nvalue = [0, 1]\nclass = >50K", fillcolor="#399de5"] ;
673 -> 675 ;
676 [label="fnlwgt <= 330307.0\ngini = 0.375\nsamples = 4\nvalue = [3, 1]\nclass = <=50K", fillcolor="#eeab7b"] ;
670 -> 676 ;
677 [label="gini = 0.0\nsamples = 1\nvalue = [0, 1]\nclass = >50K", fillcolor="#399de5"] ;
676 -> 677 ;
678 [label="gini = 0.0\nsamples = 3\nvalue = [3, 0]\nclass = <=50K", fillcolor="#e58139"] ;
676 -> 678 ;
679 [label="fnlwgt <= 152188.5\ngini = 0.142\nsamples = 26\nvalue = [24, 2]\nclass = <=50K", fillcolor="#e78c49"] ;
641 -> 679 ;
680 [label="fnlwgt <= 110897.0\ngini = 0.444\nsamples = 6\nvalue = [4, 2]\nclass = <=50K", fillcolor="#f2c09c"] ;
679 -> 680 ;
681 [label="gini = 0.0\nsamples = 4\nvalue = [4, 0]\nclass = <=50K", fillcolor="#e58139"] ;
680 -> 681 ;
682 [label="gini = 0.0\nsamples = 2\nvalue = [0, 2]\nclass = >50K", fillcolor="#399de5"] ;
680 -> 682 ;
683 [label="gini = 0.0\nsamples = 20\nvalue = [20, 0]\nclass = <=50K", fillcolor="#e58139"] ;
679 -> 683 ;
684 [label="job_Craft-repair <= 0.5\ngini = 0.245\nsamples = 7\nvalue = [6, 1]\nclass = <=50K", fillcolor="#e9965a"] ;
640 -> 684 ;
685 [label="gini = 0.0\nsamples = 5\nvalue = [5, 0]\nclass = <=50K", fillcolor="#e58139"] ;
684 -> 685 ;
686 [label="marital_status_Divorced <= 0.5\ngini = 0.5\nsamples = 2\nvalue = [1, 1]\nclass = <=50K", fillcolor="#ffffff"] ;
684 -> 686 ;
687 [label="gini = 0.0\nsamples = 1\nvalue = [0, 1]\nclass = >50K", fillcolor="#399de5"] ;
686 -> 687 ;
688 [label="gini = 0.0\nsamples = 1\nvalue = [1, 0]\nclass = <=50K", fillcolor="#e58139"] ;
686 -> 688 ;
689 [label="age <= 33.5\ngini = 0.121\nsamples = 108\nvalue = [101, 7]\nclass = <=50K", fillcolor="#e78a47"] ;
639 -> 689 ;
690 [label="fnlwgt <= 190181.5\ngini = 0.056\nsamples = 70\nvalue = [68, 2]\nclass = <=50K", fillcolor="#e6853f"] ;
689 -> 690 ;
691 [label="gini = 0.0\nsamples = 33\nvalue = [33, 0]\nclass = <=50K", fillcolor="#e58139"] ;
690 -> 691 ;
692 [label="fnlwgt <= 190718.0\ngini = 0.102\nsamples = 37\nvalue = [35, 2]\nclass = <=50K", fillcolor="#e68844"] ;
690 -> 692 ;
693 [label="gini = 0.0\nsamples = 1\nvalue = [0, 1]\nclass = >50K", fillcolor="#399de5"] ;
692 -> 693 ;
694 [label="fnlwgt <= 213736.0\ngini = 0.054\nsamples = 36\nvalue = [35, 1]\nclass = <=50K", fillcolor="#e6853f"] ;
692 -> 694 ;
695 [label="fnlwgt <= 213362.0\ngini = 0.133\nsamples = 14\nvalue = [13, 1]\nclass = <=50K", fillcolor="#e78b48"] ;
694 -> 695 ;
696 [label="gini = 0.0\nsamples = 13\nvalue = [13, 0]\nclass = <=50K", fillcolor="#e58139"] ;
695 -> 696 ;
697 [label="gini = 0.0\nsamples = 1\nvalue = [0, 1]\nclass = >50K", fillcolor="#399de5"] ;
695 -> 697 ;
698 [label="gini = 0.0\nsamples = 22\nvalue = [22, 0]\nclass = <=50K", fillcolor="#e58139"] ;
694 -> 698 ;
699 [label="education_Some-college <= 0.5\ngini = 0.229\nsamples = 38\nvalue = [33, 5]\nclass = <=50K", fillcolor="#e99457"] ;
689 -> 699 ;
700 [label="hours-per-week <= 48.0\ngini = 0.388\nsamples = 19\nvalue = [14, 5]\nclass = <=50K", fillcolor="#eeae80"] ;
699 -> 700 ;
701 [label="education_Assoc-voc <= 0.5\ngini = 0.18\nsamples = 10\nvalue = [9, 1]\nclass = <=50K", fillcolor="#e88f4f"] ;
700 -> 701 ;
702 [label="gini = 0.0\nsamples = 8\nvalue = [8, 0]\nclass = <=50K", fillcolor="#e58139"] ;
701 -> 702 ;
703 [label="marital_status_Never-married <= 0.5\ngini = 0.5\nsamples = 2\nvalue = [1, 1]\nclass = <=50K", fillcolor="#ffffff"] ;
701 -> 703 ;
704 [label="gini = 0.0\nsamples = 1\nvalue = [0, 1]\nclass = >50K", fillcolor="#399de5"] ;
703 -> 704 ;
705 [label="gini = 0.0\nsamples = 1\nvalue = [1, 0]\nclass = <=50K", fillcolor="#e58139"] ;
703 -> 705 ;
706 [label="fnlwgt <= 135763.5\ngini = 0.494\nsamples = 9\nvalue = [5, 4]\nclass = <=50K", fillcolor="#fae6d7"] ;
700 -> 706 ;
707 [label="gini = 0.0\nsamples = 2\nvalue = [2, 0]\nclass = <=50K", fillcolor="#e58139"] ;
706 -> 707 ;
708 [label="age <= 35.5\ngini = 0.49\nsamples = 7\nvalue = [3, 4]\nclass = >50K", fillcolor="#cee6f8"] ;
706 -> 708 ;
709 [label="educational-num <= 10.5\ngini = 0.48\nsamples = 5\nvalue = [3, 2]\nclass = <=50K", fillcolor="#f6d5bd"] ;
708 -> 709 ;
710 [label="fnlwgt <= 190908.0\ngini = 0.375\nsamples = 4\nvalue = [3, 1]\nclass = <=50K", fillcolor="#eeab7b"] ;
709 -> 710 ;
711 [label="gini = 0.0\nsamples = 1\nvalue = [0, 1]\nclass = >50K", fillcolor="#399de5"] ;
710 -> 711 ;
712 [label="gini = 0.0\nsamples = 3\nvalue = [3, 0]\nclass = <=50K", fillcolor="#e58139"] ;
710 -> 712 ;
713 [label="gini = 0.0\nsamples = 1\nvalue = [0, 1]\nclass = >50K", fillcolor="#399de5"] ;
709 -> 713 ;
714 [label="gini = 0.0\nsamples = 2\nvalue = [0, 2]\nclass = >50K", fillcolor="#399de5"] ;
708 -> 714 ;
715 [label="gini = 0.0\nsamples = 19\nvalue = [19, 0]\nclass = <=50K", fillcolor="#e58139"] ;
699 -> 715 ;
716 [label="job_Machine-op-inspct <= 0.5\ngini = 0.26\nsamples = 13\nvalue = [11, 2]\nclass = <=50K", fillcolor="#ea985d"] ;
638 -> 716 ;
717 [label="relationship_Unmarried <= 0.5\ngini = 0.153\nsamples = 12\nvalue = [11, 1]\nclass = <=50K", fillcolor="#e78c4b"] ;
716 -> 717 ;
718 [label="gini = 0.0\nsamples = 8\nvalue = [8, 0]\nclass = <=50K", fillcolor="#e58139"] ;
717 -> 718 ;
719 [label="fnlwgt <= 173043.0\ngini = 0.375\nsamples = 4\nvalue = [3, 1]\nclass = <=50K", fillcolor="#eeab7b"] ;
717 -> 719 ;
720 [label="gini = 0.0\nsamples = 3\nvalue = [3, 0]\nclass = <=50K", fillcolor="#e58139"] ;
719 -> 720 ;
721 [label="gini = 0.0\nsamples = 1\nvalue = [0, 1]\nclass = >50K", fillcolor="#399de5"] ;
719 -> 721 ;
722 [label="gini = 0.0\nsamples = 1\nvalue = [0, 1]\nclass = >50K", fillcolor="#399de5"] ;
716 -> 722 ;
723 [label="capital-gain <= 5327.5\ngini = 0.32\nsamples = 10\nvalue = [8, 2]\nclass = <=50K", fillcolor="#eca06a"] ;
637 -> 723 ;
724 [label="gini = 0.0\nsamples = 2\nvalue = [0, 2]\nclass = >50K", fillcolor="#399de5"] ;
723 -> 724 ;
725 [label="gini = 0.0\nsamples = 8\nvalue = [8, 0]\nclass = <=50K", fillcolor="#e58139"] ;
723 -> 725 ;
726 [label="hours-per-week <= 62.5\ngini = 0.172\nsamples = 116\nvalue = [105, 11]\nclass = <=50K", fillcolor="#e88e4e"] ;
636 -> 726 ;
727 [label="work_Federal-gov <= 0.5\ngini = 0.124\nsamples = 105\nvalue = [98, 7]\nclass = <=50K", fillcolor="#e78a47"] ;
726 -> 727 ;
728 [label="fnlwgt <= 30842.5\ngini = 0.109\nsamples = 104\nvalue = [98, 6]\nclass = <=50K", fillcolor="#e78945"] ;
727 -> 728 ;
729 [label="work_Self-emp-not-inc <= 0.5\ngini = 0.5\nsamples = 2\nvalue = [1, 1]\nclass = <=50K", fillcolor="#ffffff"] ;
728 -> 729 ;
730 [label="gini = 0.0\nsamples = 1\nvalue = [1, 0]\nclass = <=50K", fillcolor="#e58139"] ;
729 -> 730 ;
731 [label="gini = 0.0\nsamples = 1\nvalue = [0, 1]\nclass = >50K", fillcolor="#399de5"] ;
729 -> 731 ;
732 [label="education_Some-college <= 0.5\ngini = 0.093\nsamples = 102\nvalue = [97, 5]\nclass = <=50K", fillcolor="#e68743"] ;
728 -> 732 ;
733 [label="education_Assoc-voc <= 0.5\ngini = 0.03\nsamples = 65\nvalue = [64, 1]\nclass = <=50K", fillcolor="#e5833c"] ;
732 -> 733 ;
734 [label="gini = 0.0\nsamples = 57\nvalue = [57, 0]\nclass = <=50K", fillcolor="#e58139"] ;
733 -> 734 ;
735 [label="hours-per-week <= 52.5\ngini = 0.219\nsamples = 8\nvalue = [7, 1]\nclass = <=50K", fillcolor="#e99355"] ;
733 -> 735 ;
736 [label="gini = 0.0\nsamples = 7\nvalue = [7, 0]\nclass = <=50K", fillcolor="#e58139"] ;
735 -> 736 ;
737 [label="gini = 0.0\nsamples = 1\nvalue = [0, 1]\nclass = >50K", fillcolor="#399de5"] ;
735 -> 737 ;
738 [label="work_Self-emp-not-inc <= 0.5\ngini = 0.193\nsamples = 37\nvalue = [33, 4]\nclass = <=50K", fillcolor="#e89051"] ;
732 -> 738 ;
739 [label="fnlwgt <= 178387.0\ngini = 0.153\nsamples = 36\nvalue = [33, 3]\nclass = <=50K", fillcolor="#e78c4b"] ;
738 -> 739 ;
740 [label="gini = 0.0\nsamples = 17\nvalue = [17, 0]\nclass = <=50K", fillcolor="#e58139"] ;
739 -> 740 ;
741 [label="fnlwgt <= 179630.0\ngini = 0.266\nsamples = 19\nvalue = [16, 3]\nclass = <=50K", fillcolor="#ea995e"] ;
739 -> 741 ;
742 [label="gini = 0.0\nsamples = 1\nvalue = [0, 1]\nclass = >50K", fillcolor="#399de5"] ;
741 -> 742 ;
743 [label="age <= 29.5\ngini = 0.198\nsamples = 18\nvalue = [16, 2]\nclass = <=50K", fillcolor="#e89152"] ;
741 -> 743 ;
744 [label="gini = 0.0\nsamples = 1\nvalue = [0, 1]\nclass = >50K", fillcolor="#399de5"] ;
743 -> 744 ;
745 [label="age <= 32.5\ngini = 0.111\nsamples = 17\nvalue = [16, 1]\nclass = <=50K", fillcolor="#e78945"] ;
743 -> 745 ;
746 [label="marital_status_Never-married <= 0.5\ngini = 0.278\nsamples = 6\nvalue = [5, 1]\nclass = <=50K", fillcolor="#ea9a61"] ;
745 -> 746 ;
747 [label="fnlwgt <= 247721.5\ngini = 0.444\nsamples = 3\nvalue = [2, 1]\nclass = <=50K", fillcolor="#f2c09c"] ;
746 -> 747 ;
748 [label="gini = 0.0\nsamples = 2\nvalue = [2, 0]\nclass = <=50K", fillcolor="#e58139"] ;
747 -> 748 ;
749 [label="gini = 0.0\nsamples = 1\nvalue = [0, 1]\nclass = >50K", fillcolor="#399de5"] ;
747 -> 749 ;
750 [label="gini = 0.0\nsamples = 3\nvalue = [3, 0]\nclass = <=50K", fillcolor="#e58139"] ;
746 -> 750 ;
751 [label="gini = 0.0\nsamples = 11\nvalue = [11, 0]\nclass = <=50K", fillcolor="#e58139"] ;
745 -> 751 ;
752 [label="gini = 0.0\nsamples = 1\nvalue = [0, 1]\nclass = >50K", fillcolor="#399de5"] ;
738 -> 752 ;
753 [label="gini = 0.0\nsamples = 1\nvalue = [0, 1]\nclass = >50K", fillcolor="#399de5"] ;
727 -> 753 ;
754 [label="gender <= 0.5\ngini = 0.463\nsamples = 11\nvalue = [7, 4]\nclass = <=50K", fillcolor="#f4c9aa"] ;
726 -> 754 ;
755 [label="gini = 0.0\nsamples = 5\nvalue = [5, 0]\nclass = <=50K", fillcolor="#e58139"] ;
754 -> 755 ;
756 [label="age <= 31.5\ngini = 0.444\nsamples = 6\nvalue = [2, 4]\nclass = >50K", fillcolor="#9ccef2"] ;
754 -> 756 ;
757 [label="gini = 0.0\nsamples = 4\nvalue = [0, 4]\nclass = >50K", fillcolor="#399de5"] ;
756 -> 757 ;
758 [label="gini = 0.0\nsamples = 2\nvalue = [2, 0]\nclass = <=50K", fillcolor="#e58139"] ;
756 -> 758 ;
759 [label="hours-per-week <= 49.5\ngini = 0.5\nsamples = 2\nvalue = [1, 1]\nclass = <=50K", fillcolor="#ffffff"] ;
635 -> 759 ;
760 [label="gini = 0.0\nsamples = 1\nvalue = [0, 1]\nclass = >50K", fillcolor="#399de5"] ;
759 -> 760 ;
761 [label="gini = 0.0\nsamples = 1\nvalue = [1, 0]\nclass = <=50K", fillcolor="#e58139"] ;
759 -> 761 ;
762 [label="age <= 26.5\ngini = 0.32\nsamples = 25\nvalue = [20, 5]\nclass = <=50K", fillcolor="#eca06a"] ;
634 -> 762 ;
763 [label="job_Other-service <= 0.5\ngini = 0.375\nsamples = 4\nvalue = [1, 3]\nclass = >50K", fillcolor="#7bbeee"] ;
762 -> 763 ;
764 [label="gini = 0.0\nsamples = 3\nvalue = [0, 3]\nclass = >50K", fillcolor="#399de5"] ;
763 -> 764 ;
765 [label="gini = 0.0\nsamples = 1\nvalue = [1, 0]\nclass = <=50K", fillcolor="#e58139"] ;
763 -> 765 ;
766 [label="educational-num <= 11.5\ngini = 0.172\nsamples = 21\nvalue = [19, 2]\nclass = <=50K", fillcolor="#e88e4e"] ;
762 -> 766 ;
767 [label="hours-per-week <= 65.0\ngini = 0.095\nsamples = 20\nvalue = [19, 1]\nclass = <=50K", fillcolor="#e68843"] ;
766 -> 767 ;
768 [label="gini = 0.0\nsamples = 19\nvalue = [19, 0]\nclass = <=50K", fillcolor="#e58139"] ;
767 -> 768 ;
769 [label="gini = 0.0\nsamples = 1\nvalue = [0, 1]\nclass = >50K", fillcolor="#399de5"] ;
767 -> 769 ;
770 [label="gini = 0.0\nsamples = 1\nvalue = [0, 1]\nclass = >50K", fillcolor="#399de5"] ;
766 -> 770 ;
771 [label="marital_status_Married-spouse-absent <= 0.5\ngini = 0.311\nsamples = 26\nvalue = [21, 5]\nclass = <=50K", fillcolor="#eb9f68"] ;
633 -> 771 ;
772 [label="capital-loss <= 782.0\ngini = 0.269\nsamples = 25\nvalue = [21, 4]\nclass = <=50K", fillcolor="#ea995f"] ;
771 -> 772 ;
773 [label="age <= 26.5\ngini = 0.219\nsamples = 24\nvalue = [21, 3]\nclass = <=50K", fillcolor="#e99355"] ;
772 -> 773 ;
774 [label="education_HS-grad <= 0.5\ngini = 0.5\nsamples = 2\nvalue = [1, 1]\nclass = <=50K", fillcolor="#ffffff"] ;
773 -> 774 ;
775 [label="gini = 0.0\nsamples = 1\nvalue = [0, 1]\nclass = >50K", fillcolor="#399de5"] ;
774 -> 775 ;
776 [label="gini = 0.0\nsamples = 1\nvalue = [1, 0]\nclass = <=50K", fillcolor="#e58139"] ;
774 -> 776 ;
777 [label="hours-per-week <= 51.0\ngini = 0.165\nsamples = 22\nvalue = [20, 2]\nclass = <=50K", fillcolor="#e88e4d"] ;
773 -> 777 ;
778 [label="fnlwgt <= 176299.5\ngini = 0.32\nsamples = 10\nvalue = [8, 2]\nclass = <=50K", fillcolor="#eca06a"] ;
777 -> 778 ;
779 [label="gini = 0.0\nsamples = 4\nvalue = [4, 0]\nclass = <=50K", fillcolor="#e58139"] ;
778 -> 779 ;
780 [label="hours-per-week <= 46.0\ngini = 0.444\nsamples = 6\nvalue = [4, 2]\nclass = <=50K", fillcolor="#f2c09c"] ;
778 -> 780 ;
781 [label="gini = 0.0\nsamples = 3\nvalue = [3, 0]\nclass = <=50K", fillcolor="#e58139"] ;
780 -> 781 ;
782 [label="fnlwgt <= 262132.5\ngini = 0.444\nsamples = 3\nvalue = [1, 2]\nclass = >50K", fillcolor="#9ccef2"] ;
780 -> 782 ;
783 [label="gini = 0.0\nsamples = 2\nvalue = [0, 2]\nclass = >50K", fillcolor="#399de5"] ;
782 -> 783 ;
784 [label="gini = 0.0\nsamples = 1\nvalue = [1, 0]\nclass = <=50K", fillcolor="#e58139"] ;
782 -> 784 ;
785 [label="gini = 0.0\nsamples = 12\nvalue = [12, 0]\nclass = <=50K", fillcolor="#e58139"] ;
777 -> 785 ;
786 [label="gini = 0.0\nsamples = 1\nvalue = [0, 1]\nclass = >50K", fillcolor="#399de5"] ;
772 -> 786 ;
787 [label="gini = 0.0\nsamples = 1\nvalue = [0, 1]\nclass = >50K", fillcolor="#399de5"] ;
771 -> 787 ;
788 [label="capital-gain <= 4668.5\ngini = 0.192\nsamples = 792\nvalue = [707, 85]\nclass = <=50K", fillcolor="#e89051"] ;
604 -> 788 ;
789 [label="gender <= 0.5\ngini = 0.184\nsamples = 782\nvalue = [702, 80]\nclass = <=50K", fillcolor="#e88f50"] ;
788 -> 789 ;
790 [label="educational-num <= 9.5\ngini = 0.125\nsamples = 388\nvalue = [362, 26]\nclass = <=50K", fillcolor="#e78a47"] ;
789 -> 790 ;
791 [label="hours-per-week <= 83.0\ngini = 0.066\nsamples = 204\nvalue = [197, 7]\nclass = <=50K", fillcolor="#e68540"] ;
790 -> 791 ;
792 [label="work_Self-emp-inc <= 0.5\ngini = 0.05\nsamples = 196\nvalue = [191, 5]\nclass = <=50K", fillcolor="#e6843e"] ;
791 -> 792 ;
793 [label="marital_status_Married-spouse-absent <= 0.5\ngini = 0.04\nsamples = 194\nvalue = [190, 4]\nclass = <=50K", fillcolor="#e6843d"] ;
792 -> 793 ;
794 [label="work_State-gov <= 0.5\ngini = 0.031\nsamples = 189\nvalue = [186, 3]\nclass = <=50K", fillcolor="#e5833c"] ;
793 -> 794 ;
795 [label="job_Craft-repair <= 0.5\ngini = 0.022\nsamples = 183\nvalue = [181, 2]\nclass = <=50K", fillcolor="#e5823b"] ;
794 -> 795 ;
796 [label="job_Exec-managerial <= 0.5\ngini = 0.012\nsamples = 170\nvalue = [169, 1]\nclass = <=50K", fillcolor="#e5823a"] ;
795 -> 796 ;
797 [label="gini = 0.0\nsamples = 144\nvalue = [144, 0]\nclass = <=50K", fillcolor="#e58139"] ;
796 -> 797 ;
798 [label="fnlwgt <= 236461.0\ngini = 0.074\nsamples = 26\nvalue = [25, 1]\nclass = <=50K", fillcolor="#e68641"] ;
796 -> 798 ;
799 [label="gini = 0.0\nsamples = 21\nvalue = [21, 0]\nclass = <=50K", fillcolor="#e58139"] ;
798 -> 799 ;
800 [label="fnlwgt <= 256015.5\ngini = 0.32\nsamples = 5\nvalue = [4, 1]\nclass = <=50K", fillcolor="#eca06a"] ;
798 -> 800 ;
801 [label="gini = 0.0\nsamples = 1\nvalue = [0, 1]\nclass = >50K", fillcolor="#399de5"] ;
800 -> 801 ;
802 [label="gini = 0.0\nsamples = 4\nvalue = [4, 0]\nclass = <=50K", fillcolor="#e58139"] ;
800 -> 802 ;
803 [label="hours-per-week <= 55.0\ngini = 0.142\nsamples = 13\nvalue = [12, 1]\nclass = <=50K", fillcolor="#e78c49"] ;
795 -> 803 ;
804 [label="gini = 0.0\nsamples = 11\nvalue = [11, 0]\nclass = <=50K", fillcolor="#e58139"] ;
803 -> 804 ;
805 [label="relationship_Unmarried <= 0.5\ngini = 0.5\nsamples = 2\nvalue = [1, 1]\nclass = <=50K", fillcolor="#ffffff"] ;
803 -> 805 ;
806 [label="gini = 0.0\nsamples = 1\nvalue = [0, 1]\nclass = >50K", fillcolor="#399de5"] ;
805 -> 806 ;
807 [label="gini = 0.0\nsamples = 1\nvalue = [1, 0]\nclass = <=50K", fillcolor="#e58139"] ;
805 -> 807 ;
808 [label="job_Adm-clerical <= 0.5\ngini = 0.278\nsamples = 6\nvalue = [5, 1]\nclass = <=50K", fillcolor="#ea9a61"] ;
794 -> 808 ;
809 [label="gini = 0.0\nsamples = 4\nvalue = [4, 0]\nclass = <=50K", fillcolor="#e58139"] ;
808 -> 809 ;
810 [label="fnlwgt <= 86631.5\ngini = 0.5\nsamples = 2\nvalue = [1, 1]\nclass = <=50K", fillcolor="#ffffff"] ;
808 -> 810 ;
811 [label="gini = 0.0\nsamples = 1\nvalue = [1, 0]\nclass = <=50K", fillcolor="#e58139"] ;
810 -> 811 ;
812 [label="gini = 0.0\nsamples = 1\nvalue = [0, 1]\nclass = >50K", fillcolor="#399de5"] ;
810 -> 812 ;
813 [label="Black <= 0.5\ngini = 0.32\nsamples = 5\nvalue = [4, 1]\nclass = <=50K", fillcolor="#eca06a"] ;
793 -> 813 ;
814 [label="gini = 0.0\nsamples = 4\nvalue = [4, 0]\nclass = <=50K", fillcolor="#e58139"] ;
813 -> 814 ;
815 [label="gini = 0.0\nsamples = 1\nvalue = [0, 1]\nclass = >50K", fillcolor="#399de5"] ;
813 -> 815 ;
816 [label="fnlwgt <= 214229.5\ngini = 0.5\nsamples = 2\nvalue = [1, 1]\nclass = <=50K", fillcolor="#ffffff"] ;
792 -> 816 ;
817 [label="gini = 0.0\nsamples = 1\nvalue = [0, 1]\nclass = >50K", fillcolor="#399de5"] ;
816 -> 817 ;
818 [label="gini = 0.0\nsamples = 1\nvalue = [1, 0]\nclass = <=50K", fillcolor="#e58139"] ;
816 -> 818 ;
819 [label="job_Exec-managerial <= 0.5\ngini = 0.375\nsamples = 8\nvalue = [6, 2]\nclass = <=50K", fillcolor="#eeab7b"] ;
791 -> 819 ;
820 [label="gini = 0.0\nsamples = 6\nvalue = [6, 0]\nclass = <=50K", fillcolor="#e58139"] ;
819 -> 820 ;
821 [label="gini = 0.0\nsamples = 2\nvalue = [0, 2]\nclass = >50K", fillcolor="#399de5"] ;
819 -> 821 ;
822 [label="age <= 64.5\ngini = 0.185\nsamples = 184\nvalue = [165, 19]\nclass = <=50K", fillcolor="#e89050"] ;
790 -> 822 ;
823 [label="fnlwgt <= 375068.0\ngini = 0.171\nsamples = 180\nvalue = [163, 17]\nclass = <=50K", fillcolor="#e88e4e"] ;
822 -> 823 ;
824 [label="fnlwgt <= 219930.0\ngini = 0.157\nsamples = 175\nvalue = [160, 15]\nclass = <=50K", fillcolor="#e78d4c"] ;
823 -> 824 ;
825 [label="fnlwgt <= 218919.0\ngini = 0.203\nsamples = 131\nvalue = [116, 15]\nclass = <=50K", fillcolor="#e89153"] ;
824 -> 825 ;
826 [label="Asian-Pac-Islander <= 0.5\ngini = 0.192\nsamples = 130\nvalue = [116, 14]\nclass = <=50K", fillcolor="#e89051"] ;
825 -> 826 ;
827 [label="fnlwgt <= 126222.0\ngini = 0.181\nsamples = 129\nvalue = [116, 13]\nclass = <=50K", fillcolor="#e88f4f"] ;
826 -> 827 ;
828 [label="education_Assoc-acdm <= 0.5\ngini = 0.075\nsamples = 51\nvalue = [49, 2]\nclass = <=50K", fillcolor="#e68641"] ;
827 -> 828 ;
829 [label="gini = 0.0\nsamples = 47\nvalue = [47, 0]\nclass = <=50K", fillcolor="#e58139"] ;
828 -> 829 ;
830 [label="job_Exec-managerial <= 0.5\ngini = 0.5\nsamples = 4\nvalue = [2, 2]\nclass = <=50K", fillcolor="#ffffff"] ;
828 -> 830 ;
831 [label="gini = 0.0\nsamples = 2\nvalue = [2, 0]\nclass = <=50K", fillcolor="#e58139"] ;
830 -> 831 ;
832 [label="gini = 0.0\nsamples = 2\nvalue = [0, 2]\nclass = >50K", fillcolor="#399de5"] ;
830 -> 832 ;
833 [label="fnlwgt <= 126904.5\ngini = 0.242\nsamples = 78\nvalue = [67, 11]\nclass = <=50K", fillcolor="#e9965a"] ;
827 -> 833 ;
834 [label="gini = 0.0\nsamples = 1\nvalue = [0, 1]\nclass = >50K", fillcolor="#399de5"] ;
833 -> 834 ;
835 [label="marital_status_Separated <= 0.5\ngini = 0.226\nsamples = 77\nvalue = [67, 10]\nclass = <=50K", fillcolor="#e99457"] ;
833 -> 835 ;
836 [label="job_Sales <= 0.5\ngini = 0.198\nsamples = 72\nvalue = [64, 8]\nclass = <=50K", fillcolor="#e89152"] ;
835 -> 836 ;
837 [label="hours-per-week <= 49.5\ngini = 0.146\nsamples = 63\nvalue = [58, 5]\nclass = <=50K", fillcolor="#e78c4a"] ;
836 -> 837 ;
838 [label="gini = 0.0\nsamples = 31\nvalue = [31, 0]\nclass = <=50K", fillcolor="#e58139"] ;
837 -> 838 ;
839 [label="work_State-gov <= 0.5\ngini = 0.264\nsamples = 32\nvalue = [27, 5]\nclass = <=50K", fillcolor="#ea985e"] ;
837 -> 839 ;
840 [label="work_? <= 0.5\ngini = 0.225\nsamples = 31\nvalue = [27, 4]\nclass = <=50K", fillcolor="#e99456"] ;
839 -> 840 ;
841 [label="fnlwgt <= 183309.5\ngini = 0.18\nsamples = 30\nvalue = [27, 3]\nclass = <=50K", fillcolor="#e88f4f"] ;
840 -> 841 ;
842 [label="gini = 0.0\nsamples = 17\nvalue = [17, 0]\nclass = <=50K", fillcolor="#e58139"] ;
841 -> 842 ;
843 [label="age <= 39.5\ngini = 0.355\nsamples = 13\nvalue = [10, 3]\nclass = <=50K", fillcolor="#eda774"] ;
841 -> 843 ;
844 [label="gini = 0.0\nsamples = 1\nvalue = [0, 1]\nclass = >50K", fillcolor="#399de5"] ;
843 -> 844 ;
