digraph Tree {
node [shape=box, style="filled, rounded", color="black", fontname=helvetica] ;
edge [fontname=helvetica] ;
0 [label="hours-per-week <= 41.5\ngini = 0.366\nsamples = 29305\nvalue = [22252, 7053]\nclass = <=50K", fillcolor="#eda978"] ;
1 [label="educational-num <= 12.5\ngini = 0.286\nsamples = 20717\nvalue = [17138, 3579]\nclass = <=50K", fillcolor="#ea9b62"] ;
0 -> 1 [labeldistance=2.5, labelangle=45, headlabel="True"] ;
2 [label="marital_status_Never-married <= 0.5\ngini = 0.211\nsamples = 16557\nvalue = [14573, 1984]\nclass = <=50K", fillcolor="#e99254"] ;
1 -> 2 ;
3 [label="relationship_Husband <= 0.5\ngini = 0.305\nsamples = 10232\nvalue = [8314, 1918]\nclass = <=50K", fillcolor="#eb9e67"] ;
2 -> 3 ;
4 [label="relationship_Wife <= 0.5\ngini = 0.165\nsamples = 4960\nvalue = [4509, 451]\nclass = <=50K", fillcolor="#e88e4d"] ;
3 -> 4 ;
5 [label="gini = 0.074\nsamples = 4129\nvalue = [3971, 158]\nclass = <=50K", fillcolor="#e68641"] ;
4 -> 5 ;
6 [label="gini = 0.457\nsamples = 831\nvalue = [538, 293]\nclass = <=50K", fillcolor="#f3c6a5"] ;
4 -> 6 ;
7 [label="age <= 35.5\ngini = 0.402\nsamples = 5272\nvalue = [3805, 1467]\nclass = <=50K", fillcolor="#efb285"] ;
3 -> 7 ;
8 [label="gini = 0.285\nsamples = 1549\nvalue = [1282, 267]\nclass = <=50K", fillcolor="#ea9b62"] ;
7 -> 8 ;
9 [label="gini = 0.437\nsamples = 3723\nvalue = [2523, 1200]\nclass = <=50K", fillcolor="#f1bd97"] ;
7 -> 9 ;
10 [label="educational-num <= 10.5\ngini = 0.021\nsamples = 6325\nvalue = [6259, 66]\nclass = <=50K", fillcolor="#e5823b"] ;
2 -> 10 ;
11 [label="job_Exec-managerial <= 0.5\ngini = 0.018\nsamples = 5834\nvalue = [5782, 52]\nclass = <=50K", fillcolor="#e5823b"] ;
10 -> 11 ;
12 [label="gini = 0.015\nsamples = 5641\nvalue = [5598, 43]\nclass = <=50K", fillcolor="#e5823b"] ;
11 -> 12 ;
13 [label="gini = 0.089\nsamples = 193\nvalue = [184, 9]\nclass = <=50K", fillcolor="#e68743"] ;
11 -> 13 ;
14 [label="work_Federal-gov <= 0.5\ngini = 0.055\nsamples = 491\nvalue = [477, 14]\nclass = <=50K", fillcolor="#e6853f"] ;
10 -> 14 ;
15 [label="gini = 0.049\nsamples = 474\nvalue = [462, 12]\nclass = <=50K", fillcolor="#e6843e"] ;
14 -> 15 ;
16 [label="gini = 0.208\nsamples = 17\nvalue = [15, 2]\nclass = <=50K", fillcolor="#e89253"] ;
14 -> 16 ;
17 [label="educational-num <= 13.5\ngini = 0.473\nsamples = 4160\nvalue = [2565, 1595]\nclass = <=50K", fillcolor="#f5cfb4"] ;
1 -> 17 ;
18 [label="marital_status_Married-civ-spouse <= 0.5\ngini = 0.44\nsamples = 2890\nvalue = [1946, 944]\nclass = <=50K", fillcolor="#f2be99"] ;
17 -> 18 ;
19 [label="gender <= 0.5\ngini = 0.158\nsamples = 1573\nvalue = [1437, 136]\nclass = <=50K", fillcolor="#e78d4c"] ;
18 -> 19 ;
20 [label="gini = 0.104\nsamples = 890\nvalue = [841, 49]\nclass = <=50K", fillcolor="#e78845"] ;
19 -> 20 ;
21 [label="gini = 0.222\nsamples = 683\nvalue = [596, 87]\nclass = <=50K", fillcolor="#e99356"] ;
19 -> 21 ;
22 [label="job_Exec-managerial <= 0.5\ngini = 0.474\nsamples = 1317\nvalue = [509, 808]\nclass = >50K", fillcolor="#b6dbf5"] ;
18 -> 22 ;
23 [label="gini = 0.484\nsamples = 985\nvalue = [405, 580]\nclass = >50K", fillcolor="#c3e1f7"] ;
22 -> 23 ;
24 [label="gini = 0.43\nsamples = 332\nvalue = [104, 228]\nclass = >50K", fillcolor="#93caf1"] ;
22 -> 24 ;
25 [label="hours-per-week <= 30.5\ngini = 0.5\nsamples = 1270\nvalue = [619, 651]\nclass = >50K", fillcolor="#f5fafe"] ;
17 -> 25 ;
26 [label="relationship_Wife <= 0.5\ngini = 0.429\nsamples = 244\nvalue = [168, 76]\nclass = <=50K", fillcolor="#f1ba93"] ;
25 -> 26 ;
27 [label="gini = 0.371\nsamples = 211\nvalue = [159, 52]\nclass = <=50K", fillcolor="#eeaa7a"] ;
26 -> 27 ;
28 [label="gini = 0.397\nsamples = 33\nvalue = [9, 24]\nclass = >50K", fillcolor="#83c2ef"] ;
26 -> 28 ;
29 [label="relationship_Husband <= 0.5\ngini = 0.493\nsamples = 1026\nvalue = [451, 575]\nclass = >50K", fillcolor="#d4eaf9"] ;
25 -> 29 ;
30 [label="gini = 0.453\nsamples = 499\nvalue = [326, 173]\nclass = <=50K", fillcolor="#f3c4a2"] ;
29 -> 30 ;
31 [label="gini = 0.362\nsamples = 527\nvalue = [125, 402]\nclass = >50K", fillcolor="#77bbed"] ;
29 -> 31 ;
32 [label="marital_status_Married-civ-spouse <= 0.5\ngini = 0.482\nsamples = 8588\nvalue = [5114, 3474]\nclass = <=50K", fillcolor="#f7d7c0"] ;
0 -> 32 [labeldistance=2.5, labelangle=-45, headlabel="False"] ;
33 [label="age <= 29.5\ngini = 0.279\nsamples = 3367\nvalue = [2802, 565]\nclass = <=50K", fillcolor="#ea9a61"] ;
32 -> 33 ;
34 [label="educational-num <= 12.5\ngini = 0.099\nsamples = 1091\nvalue = [1034, 57]\nclass = <=50K", fillcolor="#e68844"] ;
33 -> 34 ;
35 [label="capital-gain <= 4258.5\ngini = 0.055\nsamples = 777\nvalue = [755, 22]\nclass = <=50K", fillcolor="#e6853f"] ;
34 -> 35 ;
36 [label="gini = 0.048\nsamples = 770\nvalue = [751, 19]\nclass = <=50K", fillcolor="#e6843e"] ;
35 -> 36 ;
37 [label="gini = 0.49\nsamples = 7\nvalue = [4, 3]\nclass = <=50K", fillcolor="#f8e0ce"] ;
35 -> 37 ;
38 [label="age <= 27.5\ngini = 0.198\nsamples = 314\nvalue = [279, 35]\nclass = <=50K", fillcolor="#e89152"] ;
34 -> 38 ;
39 [label="gini = 0.095\nsamples = 200\nvalue = [190, 10]\nclass = <=50K", fillcolor="#e68843"] ;
38 -> 39 ;
40 [label="gini = 0.342\nsamples = 114\nvalue = [89, 25]\nclass = <=50K", fillcolor="#eca471"] ;
38 -> 40 ;
41 [label="capital-gain <= 7073.5\ngini = 0.347\nsamples = 2276\nvalue = [1768, 508]\nclass = <=50K", fillcolor="#eca572"] ;
33 -> 41 ;
42 [label="education_HS-grad <= 0.5\ngini = 0.286\nsamples = 2137\nvalue = [1768, 369]\nclass = <=50K", fillcolor="#ea9b62"] ;
41 -> 42 ;
43 [label="gini = 0.337\nsamples = 1522\nvalue = [1196, 326]\nclass = <=50K", fillcolor="#eca36f"] ;
42 -> 43 ;
44 [label="gini = 0.13\nsamples = 615\nvalue = [572, 43]\nclass = <=50K", fillcolor="#e78a48"] ;
42 -> 44 ;
45 [label="gini = 0.0\nsamples = 139\nvalue = [0, 139]\nclass = >50K", fillcolor="#399de5"] ;
41 -> 45 ;
46 [label="educational-num <= 12.5\ngini = 0.493\nsamples = 5221\nvalue = [2312, 2909]\nclass = >50K", fillcolor="#d6ebfa"] ;
32 -> 46 ;
47 [label="educational-num <= 8.5\ngini = 0.486\nsamples = 3252\nvalue = [1898, 1354]\nclass = <=50K", fillcolor="#f8dbc6"] ;
46 -> 47 ;
48 [label="age <= 58.5\ngini = 0.309\nsamples = 398\nvalue = [322, 76]\nclass = <=50K", fillcolor="#eb9f68"] ;
47 -> 48 ;
49 [label="gini = 0.28\nsamples = 327\nvalue = [272, 55]\nclass = <=50K", fillcolor="#ea9a61"] ;
48 -> 49 ;
50 [label="gini = 0.417\nsamples = 71\nvalue = [50, 21]\nclass = <=50K", fillcolor="#f0b68c"] ;
48 -> 50 ;
51 [label="job_Exec-managerial <= 0.5\ngini = 0.495\nsamples = 2854\nvalue = [1576, 1278]\nclass = <=50K", fillcolor="#fae7da"] ;
47 -> 51 ;
52 [label="gini = 0.485\nsamples = 2343\nvalue = [1377, 966]\nclass = <=50K", fillcolor="#f7d9c4"] ;
51 -> 52 ;
53 [label="gini = 0.476\nsamples = 511\nvalue = [199, 312]\nclass = >50K", fillcolor="#b7dcf6"] ;
51 -> 53 ;
54 [label="job_Farming-fishing <= 0.5\ngini = 0.332\nsamples = 1969\nvalue = [414, 1555]\nclass = >50K", fillcolor="#6eb7ec"] ;
46 -> 54 ;
55 [label="education_Bachelors <= 0.5\ngini = 0.324\nsamples = 1935\nvalue = [393, 1542]\nclass = >50K", fillcolor="#6bb6ec"] ;
54 -> 55 ;
56 [label="gini = 0.234\nsamples = 792\nvalue = [107, 685]\nclass = >50K", fillcolor="#58ace9"] ;
55 -> 56 ;
57 [label="gini = 0.375\nsamples = 1143\nvalue = [286, 857]\nclass = >50K", fillcolor="#7bbeee"] ;
55 -> 57 ;
58 [label="education_Masters <= 0.5\ngini = 0.472\nsamples = 34\nvalue = [21, 13]\nclass = <=50K", fillcolor="#f5cfb4"] ;
54 -> 58 ;
59 [label="gini = 0.49\nsamples = 28\nvalue = [16, 12]\nclass = <=50K", fillcolor="#f8e0ce"] ;
58 -> 59 ;
60 [label="gini = 0.278\nsamples = 6\nvalue = [5, 1]\nclass = <=50K", fillcolor="#ea9a61"] ;
58 -> 60 ;
}